{"learner":{"attributes":{"scikit_learn":"{\"_estimator_type\": \"regressor\"}"},"feature_names":["age","comorbidity_count","num_prior_admissions","gender_Female","gender_Male","admission_type_Elective","admission_type_Emergency","admission_type_Urgent","diagnosis_code_Cardiac","diagnosis_code_Gastrointestinal","diagnosis_code_Infectious Disease","diagnosis_code_Neurological","diagnosis_code_Oncology","diagnosis_code_Orthopedic","diagnosis_code_Renal","diagnosis_code_Respiratory","department_Cardiology","department_General Ward","department_ICU","department_Pediatrics","department_Surgery","insurance_type_Government","insurance_type_Private","insurance_type_Self-Pay","insurance_type_Uninsured"],"feature_types":["int","int","int","float","float","float","float","float","float","float","float","float","float","float","float","float","float","float","float","float","float","float","float","float","float"],"gradient_booster":{"model":{"cats":{"enc":[],"feature_segments":[],"sorted_idx":[]},"gbtree_model_param":{"num_parallel_tree":"1","num_trees":"300"},"iteration_indptr":[0,1,2,3,4,5,6,7,8,9,10,11,12,13,14,15,16,17,18,19,20,21,22,23,24,25,26,27,28,29,30,31,32,33,34,35,36,37,38,39,40,41,42,43,44,45,46,47,48,49,50,51,52,53,54,55,56,57,58,59,60,61,62,63,64,65,66,67,68,69,70,71,72,73,74,75,76,77,78,79,80,81,82,83,84,85,86,87,88,89,90,91,92,93,94,95,96,97,98,99,100,101,102,103,104,105,106,107,108,109,110,111,112,113,114,115,116,117,118,119,120,121,122,123,124,125,126,127,128,129,130,131,132,133,134,135,136,137,138,139,140,141,142,143,144,145,146,147,148,149,150,151,152,153,154,155,156,157,158,159,160,161,162,163,164,165,166,167,168,169,170,171,172,173,174,175,176,177,178,179,180,181,182,183,184,185,186,187,188,189,190,191,192,193,194,195,196,197,198,199,200,201,202,203,204,205,206,207,208,209,210,211,212,213,214,215,216,217,218,219,220,221,222,223,224,225,226,227,228,229,230,231,232,233,234,235,236,237,238,239,240,241,242,243,244,245,246,247,248,249,250,251,252,253,254,255,256,257,258,259,260,261,262,263,264,265,266,267,268,269,270,271,272,273,274,275,276,277,278,279,280,281,282,283,284,285,286,287,288,289,290,291,292,293,294,295,296,297,298,299,300],"tree_info":[0,0,0,0,0,0,0,0,0,0,0,0,0,0,0,0,0,0,0,0,0,0,0,0,0,0,0,0,0,0,0,0,0,0,0,0,0,0,0,0,0,0,0,0,0,0,0,0,0,0,0,0,0,0,0,0,0,0,0,0,0,0,0,0,0,0,0,0,0,0,0,0,0,0,0,0,0,0,0,0,0,0,0,0,0,0,0,0,0,0,0,0,0,0,0,0,0,0,0,0,0,0,0,0,0,0,0,0,0,0,0,0,0,0,0,0,0,0,0,0,0,0,0,0,0,0,0,0,0,0,0,0,0,0,0,0,0,0,0,0,0,0,0,0,0,0,0,0,0,0,0,0,0,0,0,0,0,0,0,0,0,0,0,0,0,0,0,0,0,0,0,0,0,0,0,0,0,0,0,0,0,0,0,0,0,0,0,0,0,0,0,0,0,0,0,0,0,0,0,0,0,0,0,0,0,0,0,0,0,0,0,0,0,0,0,0,0,0,0,0,0,0,0,0,0,0,0,0,0,0,0,0,0,0,0,0,0,0,0,0,0,0,0,0,0,0,0,0,0,0,0,0,0,0,0,0,0,0,0,0,0,0,0,0,0,0,0,0,0,0,0,0,0,0,0,0,0,0,0,0,0,0,0,0,0,0,0,0,0,0,0,0,0,0,0,0,0,0,0,0],"trees":[{"base_weights":[2.7707197E-2,-5.049417E-1,2.068543E0,-5.6241206E-3,-1.8542624E0,1.540549E0,3.8499322E0,-4.4478247E-1,1.6064904E0,-2.815082E0,-1.1233234E0,9.269585E-1,2.1505044E0,2.3258405E0,4.121776E0,-1.1934229E0,3.1591332E-1,1.0520942E0,2.5246239E0,-3.4780571E0,-2.0906954E0,-1.463033E0,7.272955E-1,6.09702E-1,2.04913E0,1.7165987E0,2.7442338E0,1.5711254E0,1.5062606E-1,3.673716E0,2.3983672E-1,-1.1921739E-1,-4.6713203E-2,-5.5582435E-3,4.9176183E-2,2.3218364E-2,8.0419905E-2,8.404984E-2,1.6200921E-1,-1.7631978E-1,-4.0396858E-2,-1.1664047E-1,-3.6303237E-2,-1.05492525E-1,-4.546101E-2,8.339678E-3,5.9890933E-2,-4.3669354E-2,3.846644E-2,6.921513E-2,1.235273E-1,6.425635E-2,1.10900216E-1,6.7292735E-2,1.4459924E-1,8.489618E-2,-1.9312382E-3,2.038302E-1,1.5196216E-1],"categories":[],"categories_nodes":[],"categories_segments":[],"categories_sizes":[],"default_left":[0,0,0,0,0,0,0,0,0,0,0,0,0,0,0,0,0,0,0,0,0,0,0,0,0,0,0,0,0,0,0,0,0,0,0,0,0,0,0,0,0,0,0,0,0,0,0,0,0,0,0,0,0,0,0,0,0,0,0],"id":0,"left_children":[1,3,5,7,9,11,13,15,17,19,21,23,25,27,29,31,33,35,37,39,41,43,45,47,49,51,53,55,-1,57,-1,-1,-1,-1,-1,-1,-1,-1,-1,-1,-1,-1,-1,-1,-1,-1,-1,-1,-1,-1,-1,-1,-1,-1,-1,-1,-1,-1,-1],"loss_changes":[3.4611208E3,1.7011818E3,6.1390015E2,1.3062177E3,4.758069E2,1.8888062E2,5.256079E1,8.2613416E2,1.9840271E2,1.3392188E2,2.456178E2,8.989079E1,6.0983032E1,8.22316E0,2.0483154E1,2.233872E2,2.0539702E2,8.033792E1,8.389581E1,1.676941E1,4.555298E1,1.1593469E2,1.5887688E1,4.8256813E1,1.226947E1,2.9600952E1,1.8008545E1,2.9231644E0,0E0,8.059937E0,0E0,0E0,0E0,0E0,0E0,0E0,0E0,0E0,0E0,0E0,0E0,0E0,0E0,0E0,0E0,0E0,0E0,0E0,0E0,0E0,0E0,0E0,0E0,0E0,0E0,0E0,0E0,0E0,0E0],"parents":[2147483647,0,0,1,1,2,2,3,3,4,4,5,5,6,6,7,7,8,8,9,9,10,10,11,11,12,12,13,13,14,14,15,15,16,16,17,17,18,18,19,19,20,20,21,21,22,22,23,23,24,24,25,25,26,26,27,27,29,29],"right_children":[2,4,6,8,10,12,14,16,18,20,22,24,26,28,30,32,34,36,38,40,42,44,46,48,50,52,54,56,-1,58,-1,-1,-1,-1,-1,-1,-1,-1,-1,-1,-1,-1,-1,-1,-1,-1,-1,-1,-1,-1,-1,-1,-1,-1,-1,-1,-1,-1,-1],"split_conditions":[1E0,1E0,2E0,2E0,1E0,1E0,5.4E1,1E0,3E0,1E0,3E0,6.9E1,1E0,1E0,7.7E1,3.4E1,1E0,1E0,1E0,9E1,6.5E1,1E0,1E0,2.6E1,1E0,5.2E1,3.3E1,2E0,1.5062606E-1,6.8E1,2.3983672E-1,-1.1921739E-1,-4.6713203E-2,-5.5582435E-3,4.9176183E-2,2.3218364E-2,8.0419905E-2,8.404984E-2,1.6200921E-1,-1.7631978E-1,-4.0396858E-2,-1.1664047E-1,-3.6303237E-2,-1.05492525E-1,-4.546101E-2,8.339678E-3,5.9890933E-2,-4.3669354E-2,3.846644E-2,6.921513E-2,1.235273E-1,6.425635E-2,1.10900216E-1,6.7292735E-2,1.4459924E-1,8.489618E-2,-1.9312382E-3,2.038302E-1,1.5196216E-1],"split_indices":[18,19,1,1,1,6,0,6,1,6,1,0,1,6,0,0,1,6,6,0,0,6,6,0,1,0,0,2,0,0,0,0,0,0,0,0,0,0,0,0,0,0,0,0,0,0,0,0,0,0,0,0,0,0,0,0,0,0,0],"split_type":[0,0,0,0,0,0,0,0,0,0,0,0,0,0,0,0,0,0,0,0,0,0,0,0,0,0,0,0,0,0,0,0,0,0,0,0,0,0,0,0,0,0,0,0,0,0,0,0,0,0,0,0,0,0,0,0,0,0,0],"sum_hessian":[3.182E3,2.524E3,6.58E2,1.843E3,6.81E2,5.09E2,1.49E2,1.449E3,3.94E2,2.93E2,3.88E2,2.55E2,2.54E2,2.4E1,1.25E2,7.3E2,7.19E2,2.47E2,1.47E2,1.51E2,1.42E2,3.28E2,6E1,2E2,5.5E1,1.49E2,1.05E2,1.3E1,1.1E1,7.9E1,4.6E1,1.29E2,6.01E2,4.39E2,2.8E2,1.21E2,1.26E2,6.9E1,7.8E1,1.48E2,3E0,1.2E2,2.2E1,1.5E2,1.78E2,2.8E1,3.2E1,1.9E1,1.81E2,2.3E1,3.2E1,8.2E1,6.7E1,1.1E1,9.4E1,1.2E1,1E0,4.5E1,3.4E1],"tree_param":{"num_deleted":"0","num_feature":"25","num_nodes":"59","size_leaf_vector":"1"}},{"base_weights":[2.5152639E-2,-4.6327096E-1,1.9224517E0,1.3814213E-2,-1.7976953E0,1.4315119E0,3.521508E0,-6.5936595E-1,1.0052391E0,-2.2439547E0,-2.637796E-1,7.629974E-1,2.1104698E0,1.9441504E0,3.802074E0,-1.3807007E0,1.1993781E-1,6.805976E-1,2.662504E0,-2.944605E0,-1.5291203E0,-5.764774E-1,1.9389884E0,2.8636518E-1,1.3416423E0,1.7038295E0,2.6911929E0,1.2839079E-1,2.185918E0,3.2860854E0,2.1574727E-1,-9.22632E-2,-2.2098169E-2,-1.7912094E-2,5.2724976E-2,9.589486E-3,8.513998E-2,8.878854E-2,1.7394124E-1,-1.6867764E-1,-1.1847108E-1,-1.02325276E-1,-4.5115754E-2,-7.184295E-2,-2.8741355E-3,3.204617E-2,1.2443968E-1,-7.8799084E-2,2.2087278E-2,5.117293E-2,1.0802692E-1,6.593963E-2,1.02086835E-1,6.658801E-2,1.4485052E-1,-5.4048537E-3,2.094636E-2,1.23624675E-1,5.0481766E-2,-1.8829585E-3,1.6681278E-1],"categories":[],"categories_nodes":[],"categories_segments":[],"categories_sizes":[],"default_left":[0,0,0,0,0,0,0,0,0,0,0,0,0,0,0,0,0,0,0,0,0,0,0,0,0,0,0,0,0,0,0,0,0,0,0,0,0,0,0,0,0,0,0,0,0,0,0,0,0,0,0,0,0,0,0,0,0,0,0,0,0],"id":1,"left_children":[1,3,5,7,9,11,13,15,17,19,21,23,25,27,29,31,33,35,37,39,41,43,45,47,49,51,53,55,57,59,-1,-1,-1,-1,-1,-1,-1,-1,-1,-1,-1,-1,-1,-1,-1,-1,-1,-1,-1,-1,-1,-1,-1,-1,-1,-1,-1,-1,-1,-1,-1],"loss_changes":[2.942191E3,1.6075259E3,5.052351E2,1.2427084E3,4.546167E2,2.2488245E2,5.9876343E1,6.235775E2,4.033147E2,2.5343457E2,1.051267E2,6.93934E1,5.3742554E1,1.0694145E1,1.9694214E1,2.5037988E2,2.3901616E2,3.149591E2,8.2857056E1,5.5908203E1,8.1498474E1,5.9306366E1,1.1964844E1,4.1208286E1,2.7492538E1,1.6563171E1,2.4121338E1,3.2011813E-1,4.919739E0,1.1464783E1,0E0,0E0,0E0,0E0,0E0,0E0,0E0,0E0,0E0,0E0,0E0,0E0,0E0,0E0,0E0,0E0,0E0,0E0,0E0,0E0,0E0,0E0,0E0,0E0,0E0,0E0,0E0,0E0,0E0,0E0,0E0],"parents":[2147483647,0,0,1,1,2,2,3,3,4,4,5,5,6,6,7,7,8,8,9,9,10,10,11,11,12,12,13,13,14,14,15,15,16,16,17,17,18,18,19,19,20,20,21,21,22,22,23,23,24,24,25,25,26,26,27,27,28,28,29,29],"right_children":[2,4,6,8,10,12,14,16,18,20,22,24,26,28,30,32,34,36,38,40,42,44,46,48,50,52,54,56,58,60,-1,-1,-1,-1,-1,-1,-1,-1,-1,-1,-1,-1,-1,-1,-1,-1,-1,-1,-1,-1,-1,-1,-1,-1,-1,-1,-1,-1,-1,-1,-1],"split_conditions":[1E0,1E0,2E0,5.9E1,2E0,1E0,5E1,1E0,3E0,1E0,4E0,1E0,1E0,2.1E1,1E0,1E0,1E0,1E0,1E0,5.6E1,5.1E1,5.9E1,1E0,2.6E1,6.8E1,4.8E1,3.3E1,1.7E1,1E0,5.2E1,2.1574727E-1,-9.22632E-2,-2.2098169E-2,-1.7912094E-2,5.2724976E-2,9.589486E-3,8.513998E-2,8.878854E-2,1.7394124E-1,-1.6867764E-1,-1.1847108E-1,-1.02325276E-1,-4.5115754E-2,-7.184295E-2,-2.8741355E-3,3.204617E-2,1.2443968E-1,-7.8799084E-2,2.2087278E-2,5.117293E-2,1.0802692E-1,6.593963E-2,1.02086835E-1,6.658801E-2,1.4485052E-1,-5.4048537E-3,2.094636E-2,1.23624675E-1,5.0481766E-2,-1.8829585E-3,1.6681278E-1],"split_indices":[18,19,1,0,1,6,0,6,1,6,1,1,1,0,6,16,16,16,6,0,0,0,6,0,0,0,0,0,23,0,0,0,0,0,0,0,0,0,0,0,0,0,0,0,0,0,0,0,0,0,0,0,0,0,0,0,0,0,0,0,0],"split_type":[0,0,0,0,0,0,0,0,0,0,0,0,0,0,0,0,0,0,0,0,0,0,0,0,0,0,0,0,0,0,0,0,0,0,0,0,0,0,0,0,0,0,0,0,0,0,0,0,0,0,0,0,0,0,0,0,0,0,0,0,0],"sum_hessian":[3.173E3,2.524E3,6.49E2,1.86E3,6.64E2,4.98E2,1.51E2,1.108E3,7.52E2,5.14E2,1.5E2,2.52E2,2.46E2,2.4E1,1.27E2,5.75E2,5.33E2,6.3E2,1.22E2,2.58E2,2.56E2,1.32E2,1.8E1,1.39E2,1.13E2,1.47E2,9.9E1,3E0,2.1E1,6.7E1,6E1,3.84E2,1.91E2,3.53E2,1.8E2,4.27E2,2.03E2,6E1,6.2E1,1.45E2,1.13E2,1.39E2,1.17E2,4.9E1,8.3E1,6E0,1.2E1,1E1,1.29E2,8.3E1,3E1,7.1E1,7.6E1,1.4E1,8.5E1,2E0,1E0,1.6E1,5E0,1E0,6.6E1],"tree_param":{"num_deleted":"0","num_feature":"25","num_nodes":"61","size_leaf_vector":"1"}},{"base_weights":[1.0227304E-2,-4.5594773E-1,1.807811E0,-8.9037985E-1,8.885913E-1,1.3369182E0,3.3862715E0,-1.3025483E0,6.348047E-1,1.4349748E-1,1.6725564E0,7.3511744E-1,1.9598505E0,1.6444883E0,3.6245244E0,-2.0185447E0,-5.7147014E-1,1.1523041E-3,1.6665134E0,-5.301427E-1,8.640186E-1,8.105795E-1,2.5123339E0,-1.0170664E0,9.1684514E-1,1.5667355E0,2.505687E0,1.7422312E0,-5.315685E-3,3.34806E0,2.4273317E-1,-1.2445382E-1,-6.56152E-2,-5.426028E-2,-3.7510765E-3,-5.5995177E-2,1.9927878E-2,4.7897514E-2,1.15538195E-1,-3.8817324E-2,-1.0292555E-2,-5.4722414E-3,7.2360896E-2,6.752225E-3,6.59794E-2,8.890507E-2,1.4709426E-1,-5.6968864E-2,-4.50449E-3,2.3415212E-2,7.529556E-2,6.292181E-2,9.989671E-2,6.0652655E-2,1.3647349E-1,1.07129626E-1,4.6195533E-2,1.3822947E-1,1.9563745E-1],"categories":[],"categories_nodes":[],"categories_segments":[],"categories_sizes":[],"default_left":[0,0,0,0,0,0,0,0,0,0,0,0,0,0,0,0,0,0,0,0,0,0,0,0,0,0,0,0,0,0,0,0,0,0,0,0,0,0,0,0,0,0,0,0,0,0,0,0,0,0,0,0,0,0,0,0,0,0,0],"id":2,"left_children":[1,3,5,7,9,11,13,15,17,19,21,23,25,27,29,31,33,35,37,39,41,43,45,47,49,51,53,55,-1,57,-1,-1,-1,-1,-1,-1,-1,-1,-1,-1,-1,-1,-1,-1,-1,-1,-1,-1,-1,-1,-1,-1,-1,-1,-1,-1,-1,-1,-1],"loss_changes":[2.68574E3,1.4873535E3,4.8604126E2,1.2103167E3,3.6308737E2,1.8974866E2,5.670215E1,7.918721E2,2.6803342E2,1.557771E2,2.1729578E2,8.404022E1,4.9718445E1,3.6077995E0,2.8638062E1,2.509497E2,1.9145604E2,1.1405229E2,6.899921E1,1.3093922E1,8.815549E1,5.1743607E1,4.3023804E1,2.7318401E0,6.1914963E1,1.7160614E1,2.6483704E1,4.245289E0,0E0,2.5755127E1,0E0,0E0,0E0,0E0,0E0,0E0,0E0,0E0,0E0,0E0,0E0,0E0,0E0,0E0,0E0,0E0,0E0,0E0,0E0,0E0,0E0,0E0,0E0,0E0,0E0,0E0,0E0,0E0,0E0],"parents":[2147483647,0,0,1,1,2,2,3,3,4,4,5,5,6,6,7,7,8,8,9,9,10,10,11,11,12,12,13,13,14,14,15,15,16,16,17,17,18,18,19,19,20,20,21,21,22,22,23,23,24,24,25,25,26,26,27,27,29,29],"right_children":[2,4,6,8,10,12,14,16,18,20,22,24,26,28,30,32,34,36,38,40,42,44,46,48,50,52,54,56,-1,58,-1,-1,-1,-1,-1,-1,-1,-1,-1,-1,-1,-1,-1,-1,-1,-1,-1,-1,-1,-1,-1,-1,-1,-1,-1,-1,-1,-1,-1],"split_conditions":[1E0,1E0,2E0,2E0,1E0,1E0,4.9E1,1E0,3E0,5.3E1,1E0,2.8E1,1E0,1E0,4E0,1E0,5.1E1,5.2E1,1E0,4.1E1,1E0,4.5E1,5.5E1,1E0,1E0,5.3E1,3.2E1,1E0,-5.315685E-3,1E0,2.4273317E-1,-1.2445382E-1,-6.56152E-2,-5.426028E-2,-3.7510765E-3,-5.5995177E-2,1.9927878E-2,4.7897514E-2,1.15538195E-1,-3.8817324E-2,-1.0292555E-2,-5.4722414E-3,7.2360896E-2,6.752225E-3,6.59794E-2,8.890507E-2,1.4709426E-1,-5.6968864E-2,-4.50449E-3,2.3415212E-2,7.529556E-2,6.292181E-2,9.989671E-2,6.0652655E-2,1.3647349E-1,1.07129626E-1,4.6195533E-2,1.3822947E-1,1.9563745E-1],"split_indices":[18,16,1,1,6,6,0,6,1,0,1,0,1,9,1,1,0,0,6,0,1,0,0,9,1,0,0,7,0,6,0,0,0,0,0,0,0,0,0,0,0,0,0,0,0,0,0,0,0,0,0,0,0,0,0,0,0,0,0],"split_type":[0,0,0,0,0,0,0,0,0,0,0,0,0,0,0,0,0,0,0,0,0,0,0,0,0,0,0,0,0,0,0,0,0,0,0,0,0,0,0,0,0,0,0,0,0,0,0,0,0,0,0,0,0,0,0,0,0,0,0],"sum_hessian":[3.203E3,2.544E3,6.59E2,1.923E3,6.21E2,5.09E2,1.5E2,1.514E3,4.09E2,3.19E2,3.02E2,2.6E2,2.49E2,1.9E1,1.31E2,7.64E2,7.5E2,2.54E2,1.55E2,1.65E2,1.54E2,1.5E2,1.52E2,2.4E1,2.36E2,1.47E2,1.02E2,1.8E1,1E0,1.1E2,2.1E1,4.57E2,3.07E2,3.68E2,3.82E2,6.6E1,1.88E2,7.5E1,8E1,9.3E1,7.2E1,5.8E1,9.6E1,6.5E1,8.5E1,5.8E1,9.4E1,2.1E1,3E0,1.35E2,1.01E2,8.8E1,5.9E1,1.6E1,8.6E1,1.1E1,7E0,5.7E1,5.3E1],"tree_param":{"num_deleted":"0","num_feature":"25","num_nodes":"59","size_leaf_vector":"1"}},{"base_weights":[-5.8665727E-3,-4.4605416E-1,1.7152423E0,-8.61678E-1,8.4003824E-1,1.1251352E0,2.6189141E0,-1.4279006E0,1.5143013E-1,2.587776E-1,1.5858227E0,5.2128214E-1,1.6854192E0,2.257371E0,2.9914093E0,-1.9013355E0,-4.660375E-1,-3.195233E-1,1.0399462E0,-3.765339E-1,8.7844646E-1,8.85309E-1,2.3779297E0,-7.339419E-1,6.954239E-1,1.1957811E0,1.811026E0,1.9929476E0,1.4519359E-1,1.9237748E0,3.1098013E0,-1.2936167E-1,-6.347036E-2,-5.8308627E-2,1.2854345E-2,-4.5500886E-2,1.3360463E-2,1.4130766E-2,9.134862E-2,-2.6741102E-2,7.6921317E-3,1.2923558E-2,5.617243E-2,2.7615834E-2,7.91026E-2,1.0457505E-1,1.5859284E-1,-5.608034E-2,9.079444E-3,2.8925136E-2,7.970958E-2,5.0093688E-2,8.227685E-2,9.520858E-2,5.0488234E-2,9.4990395E-2,1.5599896E-1,1.02884345E-1,3.5111573E-2,1.7459585E-1,1.3601564E-1],"categories":[],"categories_nodes":[],"categories_segments":[],"categories_sizes":[],"default_left":[0,0,0,0,0,0,0,0,0,0,0,0,0,0,0,0,0,0,0,0,0,0,0,0,0,0,0,0,0,0,0,0,0,0,0,0,0,0,0,0,0,0,0,0,0,0,0,0,0,0,0,0,0,0,0,0,0,0,0,0,0],"id":3,"left_children":[1,3,5,7,9,11,13,15,17,19,21,23,25,27,29,31,33,35,37,39,41,43,45,47,49,51,53,55,-1,57,59,-1,-1,-1,-1,-1,-1,-1,-1,-1,-1,-1,-1,-1,-1,-1,-1,-1,-1,-1,-1,-1,-1,-1,-1,-1,-1,-1,-1,-1,-1],"loss_changes":[2.4364834E3,1.3696569E3,3.4634094E2,1.1107924E3,2.7095755E2,1.3377646E2,2.7992798E1,5.6469507E2,2.9115482E2,1.3930078E2,1.4993243E2,4.2697674E1,1.0503784E1,1.7291016E1,9.69104E0,3.5733667E2,2.0838287E2,1.5788351E2,1.4312912E2,1.4773937E1,2.6898865E1,3.323168E1,2.2473694E1,8.721732E0,1.69422E1,2.2758713E0,1.0167908E1,4.4647827E0,0E0,1.0087128E0,6.8721924E0,0E0,0E0,0E0,0E0,0E0,0E0,0E0,0E0,0E0,0E0,0E0,0E0,0E0,0E0,0E0,0E0,0E0,0E0,0E0,0E0,0E0,0E0,0E0,0E0,0E0,0E0,0E0,0E0,0E0,0E0],"parents":[2147483647,0,0,1,1,2,2,3,3,4,4,5,5,6,6,7,7,8,8,9,9,10,10,11,11,12,12,13,13,14,14,15,15,16,16,17,17,18,18,19,19,20,20,21,21,22,22,23,23,24,24,25,25,26,26,27,27,29,29,30,30],"right_children":[2,4,6,8,10,12,14,16,18,20,22,24,26,28,30,32,34,36,38,40,42,44,46,48,50,52,54,56,-1,58,60,-1,-1,-1,-1,-1,-1,-1,-1,-1,-1,-1,-1,-1,-1,-1,-1,-1,-1,-1,-1,-1,-1,-1,-1,-1,-1,-1,-1,-1,-1],"split_conditions":[1E0,1E0,6.1E1,6.1E1,5.6E1,1E0,1E0,1E0,1E0,1E0,1E0,2.6E1,3.3E1,8.2E1,6.3E1,1E0,1E0,1E0,1E0,4.9E1,3.7E1,7.7E1,8E1,1E0,1E0,1E0,1E0,1E0,1.4519359E-1,1E0,1E0,-1.2936167E-1,-6.347036E-2,-5.8308627E-2,1.2854345E-2,-4.5500886E-2,1.3360463E-2,1.4130766E-2,9.134862E-2,-2.6741102E-2,7.6921317E-3,1.2923558E-2,5.617243E-2,2.7615834E-2,7.91026E-2,1.0457505E-1,1.5859284E-1,-5.608034E-2,9.079444E-3,2.8925136E-2,7.970958E-2,5.0093688E-2,8.227685E-2,9.520858E-2,5.0488234E-2,9.4990395E-2,1.5599896E-1,1.02884345E-1,3.5111573E-2,1.7459585E-1,1.3601564E-1],"split_indices":[18,16,0,0,0,6,6,20,20,6,6,0,0,0,0,6,6,6,6,0,0,0,0,21,10,21,14,24,0,10,3,0,0,0,0,0,0,0,0,0,0,0,0,0,0,0,0,0,0,0,0,0,0,0,0,0,0,0,0,0,0],"split_type":[0,0,0,0,0,0,0,0,0,0,0,0,0,0,0,0,0,0,0,0,0,0,0,0,0,0,0,0,0,0,0,0,0,0,0,0,0,0,0,0,0,0,0,0,0,0,0,0,0,0,0,0,0,0,0,0,0,0,0,0,0],"sum_hessian":[3.214E3,2.56E3,6.54E2,1.935E3,6.25E2,3.97E2,2.57E2,1.241E3,6.94E2,3.52E2,2.73E2,1.92E2,2.05E2,1.34E2,1.23E2,8.31E2,4.1E2,4.54E2,2.4E2,1.74E2,1.78E2,1.46E2,1.27E2,2.3E1,1.69E2,4.4E1,1.61E2,9.8E1,3.6E1,1.4E1,1.09E2,3.97E2,4.34E2,2.08E2,2.02E2,2.26E2,2.28E2,1.23E2,1.17E2,1.34E2,4E1,5.1E1,1.27E2,1E2,4.6E1,9.6E1,3.1E1,1.6E1,7E0,1.51E2,1.8E1,3.3E1,1.1E1,1.43E2,1.8E1,9.3E1,5E0,1.2E1,2E0,5.1E1,5.8E1],"tree_param":{"num_deleted":"0","num_feature":"25","num_nodes":"61","size_leaf_vector":"1"}},{"base_weights":[1.5421925E-2,-4.06003E-1,1.688131E0,-7.868059E-1,9.3518776E-1,1.2576756E0,3.0205762E0,-3.85086E-1,-1.9136314E0,1.4043908E0,-2.6839992E-1,8.651295E-1,1.8003728E0,2.77456E0,2.207644E-1,2.4519233E-2,-1.2002169E0,-2.4354692E0,-1.2269222E0,1.8971941E0,4.4726956E-1,-8.3479947E-1,6.494767E-1,6.8108743E-1,1.794343E0,2.063178E0,1.2486699E0,1.6414397E0,2.9004235E0,2.3928544E-2,-2.0979617E-2,-8.610105E-2,-2.970779E-2,-1.0684872E-1,-1.5040523E-1,-4.712779E-2,-9.671373E-2,7.666509E-2,1.3120528E-1,-7.7929045E-3,7.1093075E-2,-2.9920036E-2,-7.423056E-2,9.651391E-3,7.657235E-2,4.5161963E-2,1.7778525E-3,9.724718E-2,3.279592E-2,1.1790222E-1,5.459398E-2,2.842826E-2,9.281529E-2,-5.3004026E-3,8.8250175E-2,1.3307412E-1,1.653782E-1],"categories":[],"categories_nodes":[],"categories_segments":[],"categories_sizes":[],"default_left":[0,0,0,0,0,0,0,0,0,0,0,0,0,0,0,0,0,0,0,0,0,0,0,0,0,0,0,0,0,0,0,0,0,0,0,0,0,0,0,0,0,0,0,0,0,0,0,0,0,0,0,0,0,0,0,0,0],"id":4,"left_children":[1,3,5,7,9,11,13,15,17,19,21,23,25,27,-1,29,31,33,35,37,39,41,43,45,47,49,51,53,55,-1,-1,-1,-1,-1,-1,-1,-1,-1,-1,-1,-1,-1,-1,-1,-1,-1,-1,-1,-1,-1,-1,-1,-1,-1,-1,-1,-1],"loss_changes":[2.276876E3,1.3184175E3,3.690138E2,9.091266E2,3.22836E2,1.0346808E2,4.196277E1,4.9517627E2,1.8622095E2,1.9300885E2,8.424365E1,4.8030014E1,2.729181E1,1.4777954E1,0E0,1.9943059E2,1.5583441E2,4.4679688E1,4.4440704E1,6.766077E1,8.310188E1,1.4473076E1,2.4663998E1,3.4672073E1,6.782318E0,3.6948975E1,2.7459229E1,3.641842E0,3.0654297E0,0E0,0E0,0E0,0E0,0E0,0E0,0E0,0E0,0E0,0E0,0E0,0E0,0E0,0E0,0E0,0E0,0E0,0E0,0E0,0E0,0E0,0E0,0E0,0E0,0E0,0E0,0E0,0E0],"parents":[2147483647,0,0,1,1,2,2,3,3,4,4,5,5,6,6,7,7,8,8,9,9,10,10,11,11,12,12,13,13,15,15,16,16,17,17,18,18,19,19,20,20,21,21,22,22,23,23,24,24,25,25,26,26,27,27,28,28],"right_children":[2,4,6,8,10,12,14,16,18,20,22,24,26,28,-1,30,32,34,36,38,40,42,44,46,48,50,52,54,56,-1,-1,-1,-1,-1,-1,-1,-1,-1,-1,-1,-1,-1,-1,-1,-1,-1,-1,-1,-1,-1,-1,-1,-1,-1,-1,-1,-1],"split_conditions":[1E0,2E0,2E0,1E0,1E0,1E0,4E0,1E0,1E0,1E0,3E0,6.4E1,1E0,4.9E1,2.207644E-1,1E0,5.3E1,1E0,1E0,7.5E1,3E0,1E0,4E0,1E0,1E0,1E0,5.1E1,1.7E1,7.7E1,2.3928544E-2,-2.0979617E-2,-8.610105E-2,-2.970779E-2,-1.0684872E-1,-1.5040523E-1,-4.712779E-2,-9.671373E-2,7.666509E-2,1.3120528E-1,-7.7929045E-3,7.1093075E-2,-2.9920036E-2,-7.423056E-2,9.651391E-3,7.657235E-2,4.5161963E-2,1.7778525E-3,9.724718E-2,3.279592E-2,1.1790222E-1,5.459398E-2,2.842826E-2,9.281529E-2,-5.3004026E-3,8.8250175E-2,1.3307412E-1,1.653782E-1],"split_indices":[18,1,1,19,19,1,1,17,1,17,1,0,5,0,0,20,0,5,5,0,1,5,1,5,10,7,0,0,0,0,0,0,0,0,0,0,0,0,0,0,0,0,0,0,0,0,0,0,0,0,0,0,0,0,0,0,0],"split_type":[0,0,0,0,0,0,0,0,0,0,0,0,0,0,0,0,0,0,0,0,0,0,0,0,0,0,0,0,0,0,0,0,0,0,0,0,0,0,0,0,0,0,0,0,0,0,0,0,0,0,0,0,0,0,0,0,0],"sum_hessian":[3.228E3,2.579E3,6.49E2,2.009E3,5.7E2,4.92E2,1.57E2,1.482E3,5.27E2,4.1E2,1.6E2,2.87E2,2.05E2,1.36E2,2.1E1,9.87E2,4.95E2,2.98E2,2.29E2,2.7E2,1.4E2,9.9E1,6.1E1,2.41E2,4.6E1,1.37E2,6.8E1,1.5E1,1.21E2,4.88E2,4.99E2,2.65E2,2.3E2,1.99E2,9.9E1,1.65E2,6.4E1,1.82E2,8.8E1,8.7E1,5.3E1,7.4E1,2.5E1,4.1E1,2E1,1.79E2,6.2E1,4E1,6E0,1.04E2,3.3E1,3.3E1,3.5E1,1E0,1.4E1,8.1E1,4E1],"tree_param":{"num_deleted":"0","num_feature":"25","num_nodes":"57","size_leaf_vector":"1"}},{"base_weights":[-7.749144E-3,-4.162433E-1,1.5719814E0,-7.678335E-1,8.889429E-1,1.1530341E0,2.9274333E0,-1.1497746E0,4.3755206E-1,1.3291706E0,-3.5999015E-1,6.336414E-1,1.4593604E0,2.6915214E0,4.1540823E0,-7.779299E-1,-1.8461243E0,-4.3993193E-1,7.3697543E-1,7.7796626E-1,2.306647E0,-8.193652E-1,4.6673766E-1,3.6307368E-1,1.0950109E0,1.2314956E0,1.9819838E0,2.3975437E0,3.5008016E0,2.1476911E-1,2.6137186E-2,-5.344653E-2,-3.0702862E-3,-1.1294796E-1,-6.366031E-2,-3.0187545E-2,-6.055588E-3,1.563572E-2,6.313478E-2,6.494156E-2,-1.0699039E-2,1.3134865E-1,7.870342E-2,-5.6642234E-2,-3.678872E-3,-6.781581E-2,2.8441397E-2,-1.8288784E-2,3.0504381E-2,4.3236915E-2,1.1835728E-1,5.1024463E-2,7.76657E-2,7.841297E-2,1.1297023E-1,-7.906088E-3,1.2256569E-1,1.8644865E-1,9.262674E-2],"categories":[],"categories_nodes":[],"categories_segments":[],"categories_sizes":[],"default_left":[0,0,0,0,0,0,0,0,0,0,0,0,0,0,0,0,0,0,0,0,0,0,0,0,0,0,0,0,0,0,0,0,0,0,0,0,0,0,0,0,0,0,0,0,0,0,0,0,0,0,0,0,0,0,0,0,0,0,0],"id":5,"left_children":[1,3,5,7,9,11,13,15,17,19,21,23,25,27,29,31,33,35,37,39,41,43,45,47,49,51,53,55,57,-1,-1,-1,-1,-1,-1,-1,-1,-1,-1,-1,-1,-1,-1,-1,-1,-1,-1,-1,-1,-1,-1,-1,-1,-1,-1,-1,-1,-1,-1],"loss_changes":[2.0572595E3,1.1630525E3,3.6857483E2,9.1943396E2,2.9627893E2,7.894537E1,3.338379E1,3.9110754E2,1.2670178E2,2.1264355E2,5.3931145E1,2.3070786E1,3.5071716E1,2.3010803E1,9.55603E0,2.0635834E2,1.2177026E2,6.351019E0,7.967738E1,1.3254558E2,2.9421997E1,2.1191467E1,1.0263432E1,2.1827473E1,1.8165749E1,1.348996E1,7.2456055E0,1.4129395E1,5.502838E0,0E0,0E0,0E0,0E0,0E0,0E0,0E0,0E0,0E0,0E0,0E0,0E0,0E0,0E0,0E0,0E0,0E0,0E0,0E0,0E0,0E0,0E0,0E0,0E0,0E0,0E0,0E0,0E0,0E0,0E0],"parents":[2147483647,0,0,1,1,2,2,3,3,4,4,5,5,6,6,7,7,8,8,9,9,10,10,11,11,12,12,13,13,14,14,15,15,16,16,17,17,18,18,19,19,20,20,21,21,22,22,23,23,24,24,25,25,26,26,27,27,28,28],"right_children":[2,4,6,8,10,12,14,16,18,20,22,24,26,28,30,32,34,36,38,40,42,44,46,48,50,52,54,56,58,-1,-1,-1,-1,-1,-1,-1,-1,-1,-1,-1,-1,-1,-1,-1,-1,-1,-1,-1,-1,-1,-1,-1,-1,-1,-1,-1,-1,-1,-1],"split_conditions":[1E0,2E0,2E0,1E0,1E0,4.6E1,4E0,1E0,3.9E1,3E0,3E0,1E0,6.9E1,8E1,3E0,6E1,1E0,3.4E1,1E0,1E0,1E0,7.1E1,3.3E1,2.7E1,1E0,1E0,1E0,1.7E1,1E0,2.1476911E-1,2.6137186E-2,-5.344653E-2,-3.0702862E-3,-1.1294796E-1,-6.366031E-2,-3.0187545E-2,-6.055588E-3,1.563572E-2,6.313478E-2,6.494156E-2,-1.0699039E-2,1.3134865E-1,7.870342E-2,-5.6642234E-2,-3.678872E-3,-6.781581E-2,2.8441397E-2,-1.8288784E-2,3.0504381E-2,4.3236915E-2,1.1835728E-1,5.1024463E-2,7.76657E-2,7.841297E-2,1.1297023E-1,-7.906088E-3,1.2256569E-1,1.8644865E-1,9.262674E-2],"split_indices":[18,1,1,16,19,0,1,19,0,1,1,1,0,0,2,0,1,0,1,17,17,0,0,0,8,1,1,0,23,0,0,0,0,0,0,0,0,0,0,0,0,0,0,0,0,0,0,0,0,0,0,0,0,0,0,0,0,0,0],"split_type":[0,0,0,0,0,0,0,0,0,0,0,0,0,0,0,0,0,0,0,0,0,0,0,0,0,0,0,0,0,0,0,0,0,0,0,0,0,0,0,0,0,0,0,0,0,0,0,0,0,0,0,0,0,0,0,0,0,0,0],"sum_hessian":[3.186E3,2.532E3,6.54E2,1.995E3,5.37E2,5.01E2,1.53E2,1.515E3,4.8E2,3.97E2,1.4E2,1.87E2,3.14E2,1.31E2,2.2E1,9.89E2,5.26E2,1.22E2,3.58E2,2.55E2,1.42E2,9E1,5E1,1.19E2,6.8E1,2.21E2,9.3E1,9.9E1,3.2E1,2.1E1,1E0,7.03E2,2.86E2,3.04E2,2.22E2,8E1,4.2E1,1.99E2,1.59E2,1.67E2,8.8E1,9.7E1,4.5E1,6.3E1,2.7E1,2E0,4.8E1,3E1,8.9E1,5.9E1,9E0,1.36E2,8.5E1,4E1,5.3E1,2E0,9.7E1,2.7E1,5E0],"tree_param":{"num_deleted":"0","num_feature":"25","num_nodes":"59","size_leaf_vector":"1"}},{"base_weights":[-9.448118E-3,3.8021106E-1,-1.412658E0,-1.2960662E-1,1.2728164E0,-1.8755106E0,-6.1210066E-1,2.5897637E-1,-1.2795278E0,1.5828102E0,2.4424544E-1,-2.46051E0,-1.3597003E0,-1.2440168E0,9.79883E-2,-3.493974E-1,8.814187E-1,-1.9142928E0,-6.6936535E-1,1.0057713E0,2.2088141E0,-2.6947746E-1,5.9294325E-1,-3.5605776E0,-2.3282838E0,1.6847706E-1,-1.407357E0,-1.4680274E0,4.1947093E-2,-8.921069E-2,8.2040083E-1,2.4502415E-3,-5.2731495E-2,5.842785E-2,1.3528699E-2,-1.3933615E-1,-7.814494E-2,-5.0728627E-2,-1.7943513E-2,6.795579E-2,1.55458925E-2,1.2638976E-1,7.6958664E-2,-4.2723566E-2,1.41252605E-2,3.767967E-2,-7.962749E-3,-1.8825845E-1,-9.0046E-2,-1.5699863E-2,-1.1687622E-1,-3.6920693E-2,9.630499E-2,-8.867926E-2,-5.4840524E-2,-7.918012E-2,-3.7861403E-2,-6.1360896E-2,2.0638172E-2,-1.07151875E-2,3.0445917E-2,2.9782632E-2,1.5535894E-1],"categories":[],"categories_nodes":[],"categories_segments":[],"categories_sizes":[],"default_left":[0,0,0,0,0,0,0,0,0,0,0,0,0,0,0,0,0,0,0,0,0,0,0,0,0,0,0,0,0,0,0,0,0,0,0,0,0,0,0,0,0,0,0,0,0,0,0,0,0,0,0,0,0,0,0,0,0,0,0,0,0,0,0],"id":6,"left_children":[1,3,5,7,9,11,13,15,17,19,21,23,25,27,29,31,33,35,37,39,41,43,45,47,49,51,53,55,57,59,61,-1,-1,-1,-1,-1,-1,-1,-1,-1,-1,-1,-1,-1,-1,-1,-1,-1,-1,-1,-1,-1,-1,-1,-1,-1,-1,-1,-1,-1,-1,-1,-1],"loss_changes":[1.7409174E3,1.1341893E3,2.5526575E2,7.094662E2,2.884922E2,1.2882031E2,1.14544624E2,4.4979828E2,1.5402979E2,2.491936E2,3.795707E1,2.1383423E1,1.7351685E1,3.895099E1,1.6436611E1,1.6891235E2,1.02641846E2,5.573175E1,2.1716034E1,8.894766E1,6.723889E1,2.8011349E1,1.5345947E1,4.194336E-1,2.7095337E0,1.4174035E1,2.3985352E1,8.248169E0,1.0389719E1,8.601609E0,1.0997929E1,0E0,0E0,0E0,0E0,0E0,0E0,0E0,0E0,0E0,0E0,0E0,0E0,0E0,0E0,0E0,0E0,0E0,0E0,0E0,0E0,0E0,0E0,0E0,0E0,0E0,0E0,0E0,0E0,0E0,0E0,0E0,0E0],"parents":[2147483647,0,0,1,1,2,2,3,3,4,4,5,5,6,6,7,7,8,8,9,9,10,10,11,11,12,12,13,13,14,14,15,15,16,16,17,17,18,18,19,19,20,20,21,21,22,22,23,23,24,24,25,25,26,26,27,27,28,28,29,29,30,30],"right_children":[2,4,6,8,10,12,14,16,18,20,22,24,26,28,30,32,34,36,38,40,42,44,46,48,50,52,54,56,58,60,62,-1,-1,-1,-1,-1,-1,-1,-1,-1,-1,-1,-1,-1,-1,-1,-1,-1,-1,-1,-1,-1,-1,-1,-1,-1,-1,-1,-1,-1,-1,-1,-1],"split_conditions":[1E0,6.1E1,6.2E1,1E0,1E0,1E0,1E0,1E0,1E0,1E0,7E1,2.5E1,1.4E1,1E0,8.2E1,1E0,1E0,3.5E1,4.6E1,1E0,1E0,1E0,1E0,1E0,2.6E1,1E0,4.4E1,8.6E1,6.3E1,1E0,1E0,2.4502415E-3,-5.2731495E-2,5.842785E-2,1.3528699E-2,-1.3933615E-1,-7.814494E-2,-5.0728627E-2,-1.7943513E-2,6.795579E-2,1.55458925E-2,1.2638976E-1,7.6958664E-2,-4.2723566E-2,1.41252605E-2,3.767967E-2,-7.962749E-3,-1.8825845E-1,-9.0046E-2,-1.5699863E-2,-1.1687622E-1,-3.6920693E-2,9.630499E-2,-8.867926E-2,-5.4840524E-2,-7.918012E-2,-3.7861403E-2,-6.1360896E-2,2.0638172E-2,-1.07151875E-2,3.0445917E-2,2.9782632E-2,1.5535894E-1],"split_indices":[19,0,0,17,17,6,6,6,6,6,0,0,0,9,0,20,20,0,0,20,20,6,7,10,0,11,0,0,0,9,23,0,0,0,0,0,0,0,0,0,0,0,0,0,0,0,0,0,0,0,0,0,0,0,0,0,0,0,0,0,0,0,0],"split_type":[0,0,0,0,0,0,0,0,0,0,0,0,0,0,0,0,0,0,0,0,0,0,0,0,0,0,0,0,0,0,0,0,0,0,0,0,0,0,0,0,0,0,0,0,0,0,0,0,0,0,0,0,0,0,0,0,0,0,0,0,0,0,0],"sum_hessian":[3.182E3,2.491E3,6.91E2,1.586E3,9.05E2,4.37E2,2.54E2,1.186E3,4E2,6.95E2,2.1E2,2.03E2,2.34E2,1.34E2,1.2E2,6E2,5.86E2,1.95E2,2.05E2,3.63E2,3.32E2,8.5E1,1.25E2,1.9E1,1.84E2,7E0,2.27E2,1.14E2,2E1,9.6E1,2.4E1,3.84E2,2.16E2,3.98E2,1.88E2,5.4E1,1.41E2,9.6E1,1.09E2,2.4E2,1.23E2,2.23E2,1.09E2,4.1E1,4.4E1,1.03E2,2.2E1,1.6E1,3E0,1E0,1.83E2,5E0,2E0,1.02E2,1.25E2,9.7E1,1.7E1,4E0,1.6E1,8.2E1,1.4E1,2.3E1,1E0],"tree_param":{"num_deleted":"0","num_feature":"25","num_nodes":"63","size_leaf_vector":"1"}},{"base_weights":[1.20268185E-2,-3.5808444E-1,1.4861215E0,-8.045685E-1,5.2286804E-1,9.604411E-1,2.2567954E0,-1.1259632E0,2.3596945E-1,-4.024859E-2,1.091329E0,3.9424837E-1,1.5071908E0,1.7979255E0,2.708842E0,-1.6723844E0,-5.6932473E-1,-4.1359806E-1,9.073097E-1,-3.5273933E-1,8.400126E-1,7.6963097E-1,2.245317E0,-9.972108E-1,5.730522E-1,8.7752193E-1,1.6956958E0,1.1374083E0,2.093529E0,2.4845572E0,3.4291348E0,-1.3014977E-1,-7.539546E-2,-4.5581106E-2,-1.3910617E-2,-3.9337303E-2,-7.6643187E-3,1.347621E-3,5.867782E-2,-4.1756973E-2,-1.2138549E-3,5.345014E-3,4.7930684E-2,2.9851863E-2,5.9222806E-2,9.538137E-2,1.5437637E-1,-2.1692479E-2,-6.155947E-2,3.6104415E-2,7.3164343E-3,6.316368E-2,2.7249599E-2,8.8590205E-2,5.8790326E-2,6.1472174E-2,1.8247541E-2,9.214687E-2,1.3921575E-1,1.4123844E-1,1.04447916E-1,2.0236087E-1,1.3118245E-1],"categories":[],"categories_nodes":[],"categories_segments":[],"categories_sizes":[],"default_left":[0,0,0,0,0,0,0,0,0,0,0,0,0,0,0,0,0,0,0,0,0,0,0,0,0,0,0,0,0,0,0,0,0,0,0,0,0,0,0,0,0,0,0,0,0,0,0,0,0,0,0,0,0,0,0,0,0,0,0,0,0,0,0],"id":7,"left_children":[1,3,5,7,9,11,13,15,17,19,21,23,25,27,29,31,33,35,37,39,41,43,45,47,49,51,53,55,57,59,61,-1,-1,-1,-1,-1,-1,-1,-1,-1,-1,-1,-1,-1,-1,-1,-1,-1,-1,-1,-1,-1,-1,-1,-1,-1,-1,-1,-1,-1,-1,-1,-1],"loss_changes":[1.7480219E3,1.007742E3,2.5832996E2,5.687855E2,2.7597858E2,1.1827902E2,4.9061646E1,3.941505E2,1.7567975E2,1.196782E2,1.5753201E2,4.784313E1,2.1657623E1,2.3391968E1,1.2320129E1,9.633069E1,6.401871E1,1.979203E1,4.637802E1,5.0842247E1,9.80957E0,2.3420776E1,2.0559875E1,2.3657665E0,1.0642273E1,5.3404083E0,3.8123474E0,2.608326E0,1.044812E1,7.8270874E0,3.3215332E0,0E0,0E0,0E0,0E0,0E0,0E0,0E0,0E0,0E0,0E0,0E0,0E0,0E0,0E0,0E0,0E0,0E0,0E0,0E0,0E0,0E0,0E0,0E0,0E0,0E0,0E0,0E0,0E0,0E0,0E0,0E0,0E0],"parents":[2147483647,0,0,1,1,2,2,3,3,4,4,5,5,6,6,7,7,8,8,9,9,10,10,11,11,12,12,13,13,14,14,15,15,16,16,17,17,18,18,19,19,20,20,21,21,22,22,23,23,24,24,25,25,26,26,27,27,28,28,29,29,30,30],"right_children":[2,4,6,8,10,12,14,16,18,20,22,24,26,28,30,32,34,36,38,40,42,44,46,48,50,52,54,56,58,60,62,-1,-1,-1,-1,-1,-1,-1,-1,-1,-1,-1,-1,-1,-1,-1,-1,-1,-1,-1,-1,-1,-1,-1,-1,-1,-1,-1,-1,-1,-1,-1,-1],"split_conditions":[1E0,6.3E1,6.1E1,1E0,1E0,1E0,1E0,1E0,1E0,1E0,1E0,2.6E1,3.3E1,7.1E1,8.2E1,3E1,4.5E1,4.1E1,3.5E1,7.1E1,6.6E1,8E1,8.3E1,1E0,1E0,1E0,1E0,1E0,1E0,1E0,9.3E1,-1.3014977E-1,-7.539546E-2,-4.5581106E-2,-1.3910617E-2,-3.9337303E-2,-7.6643187E-3,1.347621E-3,5.867782E-2,-4.1756973E-2,-1.2138549E-3,5.345014E-3,4.7930684E-2,2.9851863E-2,5.9222806E-2,9.538137E-2,1.5437637E-1,-2.1692479E-2,-6.155947E-2,3.6104415E-2,7.3164343E-3,6.316368E-2,2.7249599E-2,8.8590205E-2,5.8790326E-2,6.1472174E-2,1.8247541E-2,9.214687E-2,1.3921575E-1,1.4123844E-1,1.04447916E-1,2.0236087E-1,1.3118245E-1],"split_indices":[18,0,0,16,6,6,6,6,6,16,16,0,0,0,0,0,0,0,0,0,0,0,0,22,21,22,13,12,21,3,0,0,0,0,0,0,0,0,0,0,0,0,0,0,0,0,0,0,0,0,0,0,0,0,0,0,0,0,0,0,0,0,0],"split_type":[0,0,0,0,0,0,0,0,0,0,0,0,0,0,0,0,0,0,0,0,0,0,0,0,0,0,0,0,0,0,0,0,0,0,0,0,0,0,0,0,0,0,0,0,0,0,0,0,0,0,0,0,0,0,0,0,0,0,0,0,0,0,0],"sum_hessian":[3.202E3,2.56E3,6.42E2,1.699E3,8.61E2,3.83E2,2.59E2,1.298E3,4.01E2,4.33E2,4.28E2,1.89E2,1.94E2,1.31E2,1.28E2,6.54E2,6.44E2,2.04E2,1.97E2,3.2E2,1.13E2,3.36E2,9.2E1,2.1E1,1.68E2,4.6E1,1.48E2,4.2E1,8.9E1,1.01E2,2.7E1,9.6E1,5.58E2,2.95E2,3.49E2,8.3E1,1.21E2,4.6E1,1.51E2,1.29E2,1.91E2,1.6E1,9.7E1,2.39E2,9.7E1,6.8E1,2.4E1,7E0,1.4E1,1.24E2,4.4E1,2E1,2.6E1,1.27E2,2.1E1,3.7E1,5E0,6.8E1,2.1E1,5.1E1,5E1,1.3E1,1.4E1],"tree_param":{"num_deleted":"0","num_feature":"25","num_nodes":"63","size_leaf_vector":"1"}},{"base_weights":[1.2393229E-2,-3.4563377E-1,1.3773862E0,-1.0405815E0,2.3157147E-1,9.848129E-1,2.5950694E0,-1.5892055E0,-4.6184975E-1,5.4264762E-3,1.634111E0,5.1588565E-1,1.4705684E0,2.15965E0,3.3186038E0,-1.9156266E0,-5.9699863E-1,-7.682319E-1,5.2476364E-1,-3.0167776E-1,1.0040406E0,1.2105811E0,2.4688733E0,6.3834816E-2,1.0993865E0,1.1295576E0,1.9167378E0,1.5607854E0,2.7752082E0,3.011638E0,2.4495283E-1,-1.1442977E-1,-6.0500383E-2,-5.0598335E-2,-1.299156E-2,-5.9379794E-2,6.8662167E-3,-2.0678218E-2,3.8270157E-2,-3.5203215E-2,2.7034584E-2,1.5153474E-2,8.935302E-2,2.53662E-2,9.0306275E-2,1.2775336E-1,2.6859952E-2,-5.933137E-2,9.188842E-3,3.0751938E-2,6.682944E-2,3.496991E-2,6.913474E-2,4.204327E-2,1.0493306E-1,5.972131E-2,1.1547227E-1,1.5834592E-1,1.1621181E-1,1.2764028E-1,1.720288E-1],"categories":[],"categories_nodes":[],"categories_segments":[],"categories_sizes":[],"default_left":[0,0,0,0,0,0,0,0,0,0,0,0,0,0,0,0,0,0,0,0,0,0,0,0,0,0,0,0,0,0,0,0,0,0,0,0,0,0,0,0,0,0,0,0,0,0,0,0,0,0,0,0,0,0,0,0,0,0,0,0,0],"id":8,"left_children":[1,3,5,7,9,11,13,15,17,19,21,23,25,27,29,31,33,35,37,39,41,43,45,47,49,51,53,55,57,59,-1,-1,-1,-1,-1,-1,-1,-1,-1,-1,-1,-1,-1,-1,-1,-1,-1,-1,-1,-1,-1,-1,-1,-1,-1,-1,-1,-1,-1,-1,-1],"loss_changes":[1.5687284E3,1.0203081E3,3.1629016E2,3.656681E2,4.4086755E2,1.1450003E2,4.386963E1,1.9059167E2,1.7058722E2,3.677039E2,6.524579E1,6.824678E1,3.556781E1,3.4006622E1,1.3869385E1,1.1434326E2,2.0444286E1,1.634589E2,3.0573566E1,3.1120532E2,1.5424088E2,5.353041E1,9.283295E0,2.2265572E1,1.2160339E1,1.4604126E1,1.898227E1,1.23268585E1,1.4718628E0,1.4510193E0,0E0,0E0,0E0,0E0,0E0,0E0,0E0,0E0,0E0,0E0,0E0,0E0,0E0,0E0,0E0,0E0,0E0,0E0,0E0,0E0,0E0,0E0,0E0,0E0,0E0,0E0,0E0,0E0,0E0,0E0,0E0],"parents":[2147483647,0,0,1,1,2,2,3,3,4,4,5,5,6,6,7,7,8,8,9,9,10,10,11,11,12,12,13,13,14,14,15,15,16,16,17,17,18,18,19,19,20,20,21,21,22,22,23,23,24,24,25,25,26,26,27,27,28,28,29,29],"right_children":[2,4,6,8,10,12,14,16,18,20,22,24,26,28,30,32,34,36,38,40,42,44,46,48,50,52,54,56,58,60,-1,-1,-1,-1,-1,-1,-1,-1,-1,-1,-1,-1,-1,-1,-1,-1,-1,-1,-1,-1,-1,-1,-1,-1,-1,-1,-1,-1,-1,-1,-1],"split_conditions":[1E0,1E0,2E0,1E0,3E0,1E0,3E0,1E0,1E0,1E0,4E0,1E0,1E0,1E0,5E0,1E0,4.8E1,1E0,3.7E1,1E0,1E0,1E0,1E0,2.7E1,4.7E1,4.5E1,3.3E1,7.5E1,1E0,1E0,2.4495283E-1,-1.1442977E-1,-6.0500383E-2,-5.0598335E-2,-1.299156E-2,-5.9379794E-2,6.8662167E-3,-2.0678218E-2,3.8270157E-2,-3.5203215E-2,2.7034584E-2,1.5153474E-2,8.935302E-2,2.53662E-2,9.0306275E-2,1.2775336E-1,2.6859952E-2,-5.933137E-2,9.188842E-3,3.0751938E-2,6.682944E-2,3.496991E-2,6.913474E-2,4.204327E-2,1.0493306E-1,5.972131E-2,1.1547227E-1,1.5834592E-1,1.1621181E-1,1.2764028E-1,1.720288E-1],"split_indices":[18,1,1,6,1,6,1,16,16,16,1,1,1,6,1,20,0,20,0,20,6,6,24,0,0,0,0,0,22,6,0,0,0,0,0,0,0,0,0,0,0,0,0,0,0,0,0,0,0,0,0,0,0,0,0,0,0,0,0,0,0],"split_type":[0,0,0,0,0,0,0,0,0,0,0,0,0,0,0,0,0,0,0,0,0,0,0,0,0,0,0,0,0,0,0,0,0,0,0,0,0,0,0,0,0,0,0,0,0,0,0,0,0,0,0,0,0,0,0,0,0,0,0,0,0],"sum_hessian":[3.208E3,2.542E3,6.66E2,1.153E3,1.389E3,5.05E2,1.61E2,5.91E2,5.62E2,1.197E3,1.92E2,2.58E2,2.47E2,1.03E2,5.8E1,4.44E2,1.47E2,4.29E2,1.33E2,9.16E2,2.81E2,1.29E2,6.3E1,1.46E2,1.12E2,1.42E2,1.05E2,5.4E1,4.9E1,5.1E1,7E0,2.89E2,1.55E2,6.5E1,8.2E1,2.93E2,1.36E2,2.7E1,1.06E2,6.2E2,2.96E2,1.49E2,1.32E2,6E1,6.9E1,6E1,3E0,1.2E1,1.34E2,3.8E1,7.4E1,5.4E1,8.8E1,1.6E1,8.9E1,3.8E1,1.6E1,2.3E1,2.6E1,2.8E1,2.3E1],"tree_param":{"num_deleted":"0","num_feature":"25","num_nodes":"61","size_leaf_vector":"1"}},{"base_weights":[-3.359022E-2,3.1266934E-1,-1.3172218E0,-3.5680965E-2,1.5591258E0,-1.6220822E0,-2.4346094E-1,3.0759478E-1,-1.0405715E0,1.9213051E0,3.9986205E-1,-2.168624E0,-1.0959232E0,-7.203877E-1,5.4732114E-1,-2.4363464E-1,8.9113545E-1,-1.5664403E0,-5.0197357E-1,1.7119334E0,3.2606125E0,-4.931371E-2,1.128513E0,-3.2066386E0,-2.0523965E0,-1.4828148E0,-5.0543845E-1,-4.4141874E-1,-1.4726853E0,1.7586319E-1,1.4881907E0,-2.9721364E-2,2.5140746E-2,8.130229E-3,5.5806965E-2,-1.2346468E-1,-5.9474327E-2,-4.3701798E-2,5.645783E-3,6.306628E-2,1.0815233E-1,1.4211132E-1,2.1414351E-1,-2.6606554E-2,2.1159107E-2,1.9135183E-2,9.295072E-2,-1.718686E-1,-8.211883E-2,-1.04424976E-1,-3.8797017E-2,-9.196251E-2,-4.8152365E-2,-3.0589005E-2,7.021663E-2,-5.1700156E-2,-4.461366E-3,-8.20592E-2,-8.888602E-3,-7.027877E-3,4.893141E-2,4.264514E-3,1.0590595E-1],"categories":[],"categories_nodes":[],"categories_segments":[],"categories_sizes":[],"default_left":[0,0,0,0,0,0,0,0,0,0,0,0,0,0,0,0,0,0,0,0,0,0,0,0,0,0,0,0,0,0,0,0,0,0,0,0,0,0,0,0,0,0,0,0,0,0,0,0,0,0,0,0,0,0,0,0,0,0,0,0,0,0,0],"id":9,"left_children":[1,3,5,7,9,11,13,15,17,19,21,23,25,27,29,31,33,35,37,39,41,43,45,47,49,51,53,55,57,59,61,-1,-1,-1,-1,-1,-1,-1,-1,-1,-1,-1,-1,-1,-1,-1,-1,-1,-1,-1,-1,-1,-1,-1,-1,-1,-1,-1,-1,-1,-1,-1,-1],"loss_changes":[1.4080472E3,1.0833933E3,2.1990979E2,6.7332635E2,2.2805627E2,1.4830896E2,5.6966057E1,4.6823938E2,1.3997992E2,1.1078943E2,4.2930954E1,2.4303955E1,6.070456E1,1.9077488E1,1.9659405E1,1.9642383E2,1.1571149E2,8.248657E1,5.660665E1,7.065405E1,1.1350525E1,1.8931782E1,2.6529274E1,3.0168E0,9.116882E0,2.8241394E1,2.2792665E1,1.4516961E1,5.1630173E0,1.0806035E1,1.3958973E1,0E0,0E0,0E0,0E0,0E0,0E0,0E0,0E0,0E0,0E0,0E0,0E0,0E0,0E0,0E0,0E0,0E0,0E0,0E0,0E0,0E0,0E0,0E0,0E0,0E0,0E0,0E0,0E0,0E0,0E0,0E0,0E0],"parents":[2147483647,0,0,1,1,2,2,3,3,4,4,5,5,6,6,7,7,8,8,9,9,10,10,11,11,12,12,13,13,14,14,15,15,16,16,17,17,18,18,19,19,20,20,21,21,22,22,23,23,24,24,25,25,26,26,27,27,28,28,29,29,30,30],"right_children":[2,4,6,8,10,12,14,16,18,20,22,24,26,28,30,32,34,36,38,40,42,44,46,48,50,52,54,56,58,60,62,-1,-1,-1,-1,-1,-1,-1,-1,-1,-1,-1,-1,-1,-1,-1,-1,-1,-1,-1,-1,-1,-1,-1,-1,-1,-1,-1,-1,-1,-1,-1,-1],"split_conditions":[1E0,2E0,2E0,1E0,1E0,1E0,3E0,1E0,1E0,4E0,3E0,3E1,5.4E1,1E0,4E0,1E0,3.9E1,4.1E1,1E0,1E0,5E0,6.4E1,1E0,1E0,8.7E1,1E0,9.4E1,5.1E1,1E0,7.9E1,1E0,-2.9721364E-2,2.5140746E-2,8.130229E-3,5.5806965E-2,-1.2346468E-1,-5.9474327E-2,-4.3701798E-2,5.645783E-3,6.306628E-2,1.0815233E-1,1.4211132E-1,2.1414351E-1,-2.6606554E-2,2.1159107E-2,1.9135183E-2,9.295072E-2,-1.718686E-1,-8.211883E-2,-1.04424976E-1,-3.8797017E-2,-9.196251E-2,-4.8152365E-2,-3.0589005E-2,7.021663E-2,-5.1700156E-2,-4.461366E-3,-8.20592E-2,-8.888602E-3,-7.027877E-3,4.893141E-2,4.264514E-3,1.0590595E-1],"split_indices":[19,1,1,17,17,6,1,6,6,1,1,0,0,5,1,18,0,0,1,6,1,0,6,10,0,1,0,0,23,0,6,0,0,0,0,0,0,0,0,0,0,0,0,0,0,0,0,0,0,0,0,0,0,0,0,0,0,0,0,0,0,0,0],"split_type":[0,0,0,0,0,0,0,0,0,0,0,0,0,0,0,0,0,0,0,0,0,0,0,0,0,0,0,0,0,0,0,0,0,0,0,0,0,0,0,0,0,0,0,0,0,0,0,0,0,0,0,0,0,0,0,0,0,0,0,0,0,0,0],"sum_hessian":[3.166E3,2.494E3,6.72E2,1.95E3,5.44E2,5.23E2,1.49E2,1.454E3,4.96E2,4.14E2,1.3E2,2.55E2,2.68E2,9.3E1,5.6E1,7.48E2,7.06E2,2.5E2,2.46E2,3.6E2,5.4E1,8.1E1,4.9E1,2.3E1,2.32E2,1.61E2,1.07E2,6.9E1,2.4E1,4.1E1,1.5E1,5.09E2,2.39E2,1.67E2,5.39E2,7.2E1,1.78E2,1.53E2,9.3E1,1.82E2,1.78E2,4.1E1,1.3E1,4E1,4.1E1,2.5E1,2.4E1,1.9E1,4E0,2.25E2,7E0,9.4E1,6.7E1,1.02E2,5E0,2.5E1,4.4E1,2.1E1,3E0,3E1,1.1E1,5E0,1E1],"tree_param":{"num_deleted":"0","num_feature":"25","num_nodes":"63","size_leaf_vector":"1"}},{"base_weights":[1.7170522E-2,3.5567102E-1,-1.1965855E0,-2.7221712E-1,8.91329E-1,-1.5118558E0,-1.2427881E-1,-5.97396E-1,7.099562E-1,1.1916897E0,-4.3605812E-2,-2.0515473E0,-9.863434E-1,-5.462912E-1,6.002555E-1,-1.1402596E0,-5.8159236E-2,1.5319924E-1,1.1997736E0,6.5832376E-1,1.7650753E0,-2.572156E-1,1.2389807E0,-1.4262609E-1,-1.8827943E0,-1.3428068E0,-5.6317073E-1,-2.4522744E-1,-1.2506343E0,4.2139605E-1,2.4476585E0,-4.393689E-2,-8.588263E-2,1.5288146E-2,-3.8174007E-2,-6.360225E-2,1.4494531E-2,4.4736784E-2,7.721609E-2,1.624373E-2,7.378286E-2,6.0411792E-2,1.0909336E-1,-3.582371E-2,1.0031009E-2,4.255543E-2,1.21550344E-1,-9.906233E-2,-6.1969817E-2,-7.001869E-2,5.398468E-2,-5.5149972E-2,-1.4649249E-2,-3.4811135E-2,1.1255367E-2,-1.0280448E-1,-4.8180006E-2,7.5657964E-3,4.4323523E-2,1.6601348E-2,1.4467798E-1],"categories":[],"categories_nodes":[],"categories_segments":[],"categories_sizes":[],"default_left":[0,0,0,0,0,0,0,0,0,0,0,0,0,0,0,0,0,0,0,0,0,0,0,0,0,0,0,0,0,0,0,0,0,0,0,0,0,0,0,0,0,0,0,0,0,0,0,0,0,0,0,0,0,0,0,0,0,0,0,0,0],"id":10,"left_children":[1,3,5,7,9,11,13,15,17,19,21,23,25,27,29,31,33,35,37,39,41,43,45,-1,47,49,51,53,55,57,59,-1,-1,-1,-1,-1,-1,-1,-1,-1,-1,-1,-1,-1,-1,-1,-1,-1,-1,-1,-1,-1,-1,-1,-1,-1,-1,-1,-1,-1,-1],"loss_changes":[1.309416E3,8.3838525E2,2.3476843E2,3.670747E2,3.7775183E2,1.5027734E2,4.894414E1,2.5256146E2,7.7811035E1,3.1016724E2,9.018184E1,3.0313354E1,4.057544E1,2.1110582E1,1.8463669E1,6.342102E1,1.11633385E2,2.6669262E1,1.4593475E1,1.4369383E2,1.1108594E2,5.9438477E1,1.9661583E1,0E0,1.1543518E1,2.2151428E1,1.8200298E1,1.54292755E1,4.954548E0,6.7742662E0,3.756075E0,0E0,0E0,0E0,0E0,0E0,0E0,0E0,0E0,0E0,0E0,0E0,0E0,0E0,0E0,0E0,0E0,0E0,0E0,0E0,0E0,0E0,0E0,0E0,0E0,0E0,0E0,0E0,0E0,0E0,0E0],"parents":[2147483647,0,0,1,1,2,2,3,3,4,4,5,5,6,6,7,7,8,8,9,9,10,10,11,11,12,12,13,13,14,14,15,15,16,16,17,17,18,18,19,19,20,20,21,21,22,22,24,24,25,25,26,26,27,27,28,28,29,29,30,30],"right_children":[2,4,6,8,10,12,14,16,18,20,22,24,26,28,30,32,34,36,38,40,42,44,46,-1,48,50,52,54,56,58,60,-1,-1,-1,-1,-1,-1,-1,-1,-1,-1,-1,-1,-1,-1,-1,-1,-1,-1,-1,-1,-1,-1,-1,-1,-1,-1,-1,-1,-1,-1],"split_conditions":[1E0,1E0,2E0,1E0,1E0,1E0,3E0,1E0,1E0,1E0,3E0,3.6E1,1E0,1E0,6E0,1E0,1E0,2.6E1,5.3E1,7.1E1,5.8E1,1E0,1E0,-1.4262609E-1,7.4E1,8.7E1,4.5E1,6.3E1,5.1E1,7.7E1,7E1,-4.393689E-2,-8.588263E-2,1.5288146E-2,-3.8174007E-2,-6.360225E-2,1.4494531E-2,4.4736784E-2,7.721609E-2,1.624373E-2,7.378286E-2,6.0411792E-2,1.0909336E-1,-3.582371E-2,1.0031009E-2,4.255543E-2,1.21550344E-1,-9.906233E-2,-6.1969817E-2,-7.001869E-2,5.398468E-2,-5.5149972E-2,-1.4649249E-2,-3.4811135E-2,1.1255367E-2,-1.0280448E-1,-4.8180006E-2,7.5657964E-3,4.4323523E-2,1.6601348E-2,1.4467798E-1],"split_indices":[19,1,1,18,17,6,1,6,6,6,1,0,1,5,1,17,17,0,0,0,0,6,10,0,0,0,0,0,0,0,0,0,0,0,0,0,0,0,0,0,0,0,0,0,0,0,0,0,0,0,0,0,0,0,0,0,0,0,0,0,0],"split_type":[0,0,0,0,0,0,0,0,0,0,0,0,0,0,0,0,0,0,0,0,0,0,0,0,0,0,0,0,0,0,0,0,0,0,0,0,0,0,0,0,0,0,0,0,0,0,0,0,0,0,0,0,0,0,0,0,0,0,0,0,0],"sum_hessian":[3.185E3,2.491E3,6.94E2,1.147E3,1.344E3,5.36E2,1.58E2,8.62E2,2.85E2,1.017E3,3.27E2,2.63E2,2.73E2,1E2,5.8E1,4.29E2,4.33E2,1.34E2,1.51E2,5.28E2,4.89E2,2.81E2,4.6E1,4.3E1,2.2E2,1.47E2,1.26E2,7.1E1,2.9E1,5.4E1,4E0,2.97E2,1.32E2,2.86E2,1.47E2,1.1E1,1.23E2,8.2E1,6.9E1,3.76E2,1.52E2,2.11E2,2.78E2,1.4E2,1.41E2,3.6E1,1E1,1.89E2,3.1E1,1.44E2,3E0,4.1E1,8.5E1,3.6E1,3.5E1,6E0,2.3E1,3.5E1,1.9E1,1E0,3E0],"tree_param":{"num_deleted":"0","num_feature":"25","num_nodes":"61","size_leaf_vector":"1"}},{"base_weights":[-1.702342E-2,-3.2338375E-1,1.2137601E0,-6.036096E-1,7.1924025E-1,8.5525376E-1,2.3449762E0,-3.043562E-1,-1.4269665E0,1.0994543E0,-2.4090303E-1,4.4995183E-1,1.2471391E0,2.1020765E0,3.4412565E0,-7.711922E-1,1.9228679E-1,-1.8480669E0,-1.0160643E0,6.7608786E-1,1.7860656E0,-4.375357E-1,1.1792521E0,3.5002515E-2,9.529458E-1,1.0016304E0,1.6114035E0,1.318492E0,2.2626915E0,1.7773749E-1,1.5098142E-2,-8.36156E-2,-2.8605718E-2,2.6381746E-2,-2.3681078E-2,-1.3479754E-1,-8.3270274E-2,-7.257667E-2,-2.6294127E-2,5.3306587E-2,-5.376566E-3,6.433997E-2,1.0884943E-1,-5.818501E-2,-9.679151E-3,3.520496E-2,1.3925256E-1,-5.5884816E-2,7.979327E-3,2.2925926E-2,5.9689563E-2,7.05136E-3,5.312649E-2,2.0145124E-2,8.433287E-2,-1.1635526E-2,7.350441E-2,9.595247E-2,1.2669767E-1],"categories":[],"categories_nodes":[],"categories_segments":[],"categories_sizes":[],"default_left":[0,0,0,0,0,0,0,0,0,0,0,0,0,0,0,0,0,0,0,0,0,0,0,0,0,0,0,0,0,0,0,0,0,0,0,0,0,0,0,0,0,0,0,0,0,0,0,0,0,0,0,0,0,0,0,0,0,0,0],"id":11,"left_children":[1,3,5,7,9,11,13,15,17,19,21,23,25,27,29,31,33,35,37,39,41,43,45,47,49,51,53,55,57,-1,-1,-1,-1,-1,-1,-1,-1,-1,-1,-1,-1,-1,-1,-1,-1,-1,-1,-1,-1,-1,-1,-1,-1,-1,-1,-1,-1,-1,-1],"loss_changes":[1.1994537E3,7.445917E2,2.55112E2,4.943216E2,1.9739722E2,7.615466E1,3.324182E1,3.4189642E2,9.069385E1,1.1128876E2,4.35203E1,4.985001E1,2.0296326E1,1.3000244E1,8.1901245E0,1.3538193E2,1.5991736E2,3.6242493E1,5.7510986E1,7.377529E1,2.5889313E1,2.3867098E1,1.2536055E1,1.9134605E1,1.2313324E1,7.659256E0,8.142075E0,5.985859E0,4.831787E0,0E0,0E0,0E0,0E0,0E0,0E0,0E0,0E0,0E0,0E0,0E0,0E0,0E0,0E0,0E0,0E0,0E0,0E0,0E0,0E0,0E0,0E0,0E0,0E0,0E0,0E0,0E0,0E0,0E0,0E0],"parents":[2147483647,0,0,1,1,2,2,3,3,4,4,5,5,6,6,7,7,8,8,9,9,10,10,11,11,12,12,13,13,14,14,15,15,16,16,17,17,18,18,19,19,20,20,21,21,22,22,23,23,24,24,25,25,26,26,27,27,28,28],"right_children":[2,4,6,8,10,12,14,16,18,20,22,24,26,28,30,32,34,36,38,40,42,44,46,48,50,52,54,56,58,-1,-1,-1,-1,-1,-1,-1,-1,-1,-1,-1,-1,-1,-1,-1,-1,-1,-1,-1,-1,-1,-1,-1,-1,-1,-1,-1,-1,-1,-1],"split_conditions":[1E0,2E0,2E0,1E0,1E0,1E0,4E0,1E0,1E0,3E0,4E0,1E0,1E0,4.9E1,3E0,3.4E1,1E0,3.7E1,5.1E1,1E0,1E0,5.1E1,6E0,2.6E1,4.7E1,2.6E1,2.1E1,1.7E1,1E0,1.7773749E-1,1.5098142E-2,-8.36156E-2,-2.8605718E-2,2.6381746E-2,-2.3681078E-2,-1.3479754E-1,-8.3270274E-2,-7.257667E-2,-2.6294127E-2,5.3306587E-2,-5.376566E-3,6.433997E-2,1.0884943E-1,-5.818501E-2,-9.679151E-3,3.520496E-2,1.3925256E-1,-5.5884816E-2,7.979327E-3,2.2925926E-2,5.9689563E-2,7.05136E-3,5.312649E-2,2.0145124E-2,8.433287E-2,-1.1635526E-2,7.350441E-2,9.595247E-2,1.2669767E-1],"split_indices":[18,1,1,19,19,6,1,6,6,1,1,1,1,0,2,0,17,0,0,17,6,0,1,0,0,0,0,0,6,0,0,0,0,0,0,0,0,0,0,0,0,0,0,0,0,0,0,0,0,0,0,0,0,0,0,0,0,0,0],"split_type":[0,0,0,0,0,0,0,0,0,0,0,0,0,0,0,0,0,0,0,0,0,0,0,0,0,0,0,0,0,0,0,0,0,0,0,0,0,0,0,0,0,0,0,0,0,0,0,0,0,0,0,0,0,0,0,0,0,0,0],"sum_hessian":[3.179E3,2.546E3,6.33E2,2.007E3,5.39E2,4.82E2,1.51E2,1.473E3,5.34E2,3.86E2,1.53E2,2.38E2,2.44E2,1.26E2,2.5E1,7.59E2,7.14E2,2.62E2,2.72E2,2.4E2,1.46E2,1.35E2,1.8E1,1.31E2,1.07E2,1.48E2,9.6E1,2.3E1,1.03E2,2.4E1,1E0,1.36E2,6.23E2,4.75E2,2.39E2,4.4E1,2.18E2,1.43E2,1.29E2,1.6E2,8E1,6.6E1,8E1,3.3E1,1.02E2,1.5E1,3E0,1.2E1,1.19E2,3.6E1,7.1E1,1E1,1.38E2,6E0,9E1,2E0,2.1E1,4.9E1,5.4E1],"tree_param":{"num_deleted":"0","num_feature":"25","num_nodes":"59","size_leaf_vector":"1"}},{"base_weights":[8.430764E-3,-2.87151E-1,1.1820781E0,-8.6114454E-1,1.9438869E-1,8.427327E-1,2.2033107E0,-1.1607225E0,3.1389724E-2,-1.0467506E-2,1.3488175E0,4.0843427E-1,1.244518E0,6.904175E-1,2.3096535E0,-1.603531E0,-7.091781E-1,-3.42639E-1,3.784983E-1,-3.0131555E-1,9.0568966E-1,9.8851174E-1,2.0919824E0,1.6873546E-1,1.1941934E0,1.0794954E0,1.7807235E0,-7.6178275E-2,1.4697098E0,2.1451871E0,1.5622626E-1,-1.1446221E-1,-7.2305165E-2,-4.330733E-2,-4.2993465E-4,-3.3161562E-2,-8.643965E-4,-2.0762747E-3,4.2871773E-2,-3.3893555E-2,4.6906197E-3,1.4942613E-2,8.1302725E-2,3.722357E-2,9.0969406E-2,9.052407E-2,1.3178976E-1,-3.6183589E-3,2.8231675E-2,7.942239E-2,3.7864454E-2,3.3727482E-2,5.927775E-2,9.391635E-2,1.8523036E-2,1.3741176E-3,-1.7453551E-2,8.088211E-2,1.825118E-2,9.3423724E-2,1.3536213E-1],"categories":[],"categories_nodes":[],"categories_segments":[],"categories_sizes":[],"default_left":[0,0,0,0,0,0,0,0,0,0,0,0,0,0,0,0,0,0,0,0,0,0,0,0,0,0,0,0,0,0,0,0,0,0,0,0,0,0,0,0,0,0,0,0,0,0,0,0,0,0,0,0,0,0,0,0,0,0,0,0,0],"id":12,"left_children":[1,3,5,7,9,11,13,15,17,19,21,23,25,27,29,31,33,35,37,39,41,43,45,47,49,51,53,55,57,59,-1,-1,-1,-1,-1,-1,-1,-1,-1,-1,-1,-1,-1,-1,-1,-1,-1,-1,-1,-1,-1,-1,-1,-1,-1,-1,-1,-1,-1,-1,-1],"loss_changes":[1.1173856E3,7.113463E2,2.2270801E2,3.1394476E2,3.3110278E2,8.464511E1,2.4307861E1,1.746167E2,3.8558945E1,3.1736325E2,5.4430817E1,4.424803E1,2.0464691E1,7.280786E0,1.34002075E1,4.4511597E1,4.804895E1,1.490415E1,3.1015017E1,1.3456763E2,1.2497446E2,2.7844025E1,5.6376343E0,1.7413137E1,8.270912E0,7.618164E0,7.2876587E0,2.0761093E-1,3.9003563E-1,1.4849121E1,0E0,0E0,0E0,0E0,0E0,0E0,0E0,0E0,0E0,0E0,0E0,0E0,0E0,0E0,0E0,0E0,0E0,0E0,0E0,0E0,0E0,0E0,0E0,0E0,0E0,0E0,0E0,0E0,0E0,0E0,0E0],"parents":[2147483647,0,0,1,1,2,2,3,3,4,4,5,5,6,6,7,7,8,8,9,9,10,10,11,11,12,12,13,13,14,14,15,15,16,16,17,17,18,18,19,19,20,20,21,21,22,22,23,23,24,24,25,25,26,26,27,27,28,28,29,29],"right_children":[2,4,6,8,10,12,14,16,18,20,22,24,26,28,30,32,34,36,38,40,42,44,46,48,50,52,54,56,58,60,-1,-1,-1,-1,-1,-1,-1,-1,-1,-1,-1,-1,-1,-1,-1,-1,-1,-1,-1,-1,-1,-1,-1,-1,-1,-1,-1,-1,-1,-1,-1],"split_conditions":[1E0,1E0,2E0,1E0,3E0,1E0,3.9E1,1E0,1E0,1E0,4E0,6.8E1,6.4E1,1E0,4E0,3.3E1,6.4E1,4.9E1,4.8E1,1E0,1E0,1E0,5E0,1E0,1E0,3.3E1,1E0,1E0,3.4E1,1E0,1.5622626E-1,-1.1446221E-1,-7.2305165E-2,-4.330733E-2,-4.2993465E-4,-3.3161562E-2,-8.643965E-4,-2.0762747E-3,4.2871773E-2,-3.3893555E-2,4.6906197E-3,1.4942613E-2,8.1302725E-2,3.722357E-2,9.0969406E-2,9.052407E-2,1.3178976E-1,-3.6183589E-3,2.8231675E-2,7.942239E-2,3.7864454E-2,3.3727482E-2,5.927775E-2,9.391635E-2,1.8523036E-2,1.3741176E-3,-1.7453551E-2,8.088211E-2,1.825118E-2,9.3423724E-2,1.3536213E-1],"split_indices":[18,1,1,16,1,6,0,6,6,16,1,0,0,6,1,0,0,0,0,6,6,16,1,1,2,0,8,9,0,21,0,0,0,0,0,0,0,0,0,0,0,0,0,0,0,0,0,0,0,0,0,0,0,0,0,0,0,0,0,0,0],"split_type":[0,0,0,0,0,0,0,0,0,0,0,0,0,0,0,0,0,0,0,0,0,0,0,0,0,0,0,0,0,0,0,0,0,0,0,0,0,0,0,0,0,0,0,0,0,0,0,0,0,0,0,0,0,0,0,0,0,0,0,0,0],"sum_hessian":[3.219E3,2.572E3,6.47E2,1.173E3,1.399E3,4.87E2,1.6E2,8.78E2,2.95E2,1.189E3,2.1E2,2.35E2,2.52E2,1.1E1,1.49E2,4.42E2,4.36E2,1.42E2,1.53E2,9.03E2,2.86E2,1.43E2,6.7E1,1.81E2,5.4E1,1.95E2,5.7E1,6E0,5E0,1.27E2,2.2E1,8E1,3.62E2,3.56E2,8E1,7.1E1,7.1E1,8.2E1,7.1E1,4.62E2,4.41E2,1.56E2,1.3E2,1.12E2,3.1E1,4.7E1,2E1,1.13E2,6.8E1,2.7E1,2.7E1,4.2E1,1.53E2,5.3E1,4E0,5E0,1E0,4E0,1E0,8.8E1,3.9E1],"tree_param":{"num_deleted":"0","num_feature":"25","num_nodes":"61","size_leaf_vector":"1"}},{"base_weights":[1.4377885E-2,-2.779058E-1,1.1377804E0,-8.5141504E-1,1.9252875E-1,8.4006095E-1,2.111954E0,-5.717971E-1,-1.6226077E0,5.0705594E-1,-6.1298895E-1,4.702063E-1,1.2213039E0,1.885576E0,1.697402E-1,-9.8694056E-1,-1.3726959E-1,-1.972374E0,-1.2154237E0,4.4678498E-2,1.004471E0,-1.2526017E0,-2.6080626E-1,2.8459683E-1,1.1932662E0,5.5700403E-1,1.371623E0,1.6140596E0,2.5055761E0,-3.5657365E-2,-7.835278E-2,7.8240065E-3,-3.4855228E-2,-1.0039728E-1,-2.8210045E-3,-7.451999E-2,-2.0458192E-2,-2.755405E-2,2.1866268E-2,4.09705E-2,1.0131188E-1,-5.082317E-2,-9.794508E-2,-3.769359E-2,1.1522943E-2,-3.0432269E-2,1.9646948E-2,5.0906867E-2,8.533889E-2,-2.1579664E-2,3.0468449E-2,5.2926313E-2,8.861563E-2,9.150709E-2,4.447786E-2,1.2822266E-1,6.7061186E-3],"categories":[],"categories_nodes":[],"categories_segments":[],"categories_sizes":[],"default_left":[0,0,0,0,0,0,0,0,0,0,0,0,0,0,0,0,0,0,0,0,0,0,0,0,0,0,0,0,0,0,0,0,0,0,0,0,0,0,0,0,0,0,0,0,0,0,0,0,0,0,0,0,0,0,0,0,0],"id":13,"left_children":[1,3,5,7,9,11,13,15,17,19,21,23,25,27,-1,29,31,33,35,37,39,41,43,45,47,49,51,53,55,-1,-1,-1,-1,-1,-1,-1,-1,-1,-1,-1,-1,-1,-1,-1,-1,-1,-1,-1,-1,-1,-1,-1,-1,-1,-1,-1,-1],"loss_changes":[1.0576105E3,6.8976904E2,1.9109613E2,2.4748877E2,3.5627765E2,7.1479065E1,3.8612183E1,1.5265591E2,4.1182983E1,2.3247852E2,8.8651245E1,3.468836E1,2.430011E1,1.8513458E1,0E0,6.7656555E1,6.83564E1,1.0995789E1,3.1315308E1,1.2305063E2,9.042609E1,2.1358658E1,6.218357E1,2.0465288E1,3.028595E0,2.747857E0,2.3716736E1,1.340097E1,5.1013947E0,0E0,0E0,0E0,0E0,0E0,0E0,0E0,0E0,0E0,0E0,0E0,0E0,0E0,0E0,0E0,0E0,0E0,0E0,0E0,0E0,0E0,0E0,0E0,0E0,0E0,0E0,0E0,0E0],"parents":[2147483647,0,0,1,1,2,2,3,3,4,4,5,5,6,6,7,7,8,8,9,9,10,10,11,11,12,12,13,13,15,15,16,16,17,17,18,18,19,19,20,20,21,21,22,22,23,23,24,24,25,25,26,26,27,27,28,28],"right_children":[2,4,6,8,10,12,14,16,18,20,22,24,26,28,-1,30,32,34,36,38,40,42,44,46,48,50,52,54,56,-1,-1,-1,-1,-1,-1,-1,-1,-1,-1,-1,-1,-1,-1,-1,-1,-1,-1,-1,-1,-1,-1,-1,-1,-1,-1,-1,-1],"split_conditions":[1E0,1E0,2E0,1E0,1E0,1E0,4E0,1E0,1E0,1E0,5.1E1,6.9E1,3.4E1,7.7E1,1.697402E-1,1E0,1E0,9E1,5.8E1,5.4E1,3E0,1E0,1E0,2.8E1,1E0,1E0,1E0,1E0,1E0,-3.5657365E-2,-7.835278E-2,7.8240065E-3,-3.4855228E-2,-1.0039728E-1,-2.8210045E-3,-7.451999E-2,-2.0458192E-2,-2.755405E-2,2.1866268E-2,4.09705E-2,1.0131188E-1,-5.082317E-2,-9.794508E-2,-3.769359E-2,1.1522943E-2,-3.0432269E-2,1.9646948E-2,5.0906867E-2,8.533889E-2,-2.1579664E-2,3.0468449E-2,5.2926313E-2,8.861563E-2,9.150709E-2,4.447786E-2,1.2822266E-1,6.7061186E-3],"split_indices":[18,1,1,19,19,6,1,6,6,6,0,0,0,0,0,17,17,0,0,0,1,5,6,0,23,0,1,5,24,0,0,0,0,0,0,0,0,0,0,0,0,0,0,0,0,0,0,0,0,0,0,0,0,0,0,0,0],"split_type":[0,0,0,0,0,0,0,0,0,0,0,0,0,0,0,0,0,0,0,0,0,0,0,0,0,0,0,0,0,0,0,0,0,0,0,0,0,0,0,0,0,0,0,0,0,0,0,0,0,0,0,0,0,0,0,0,0],"sum_hessian":[3.219E3,2.555E3,6.64E2,1.151E3,1.404E3,5.1E2,1.54E2,8.46E2,3.05E2,1.01E3,3.94E2,2.6E2,2.5E2,1.33E2,2.1E1,4.32E2,4.14E2,1.62E2,1.43E2,5.24E2,4.86E2,1.39E2,2.55E2,2.08E2,5.2E1,4.7E1,2.03E2,9.5E1,3.8E1,2.95E2,1.37E2,2.72E2,1.42E2,1.59E2,3E0,1.06E2,3.7E1,2.08E2,3.16E2,4.13E2,7.3E1,1.06E2,3.3E1,1.27E2,1.28E2,2.2E1,1.86E2,4.1E1,1.1E1,2E0,4.5E1,1.16E2,8.7E1,7.2E1,2.3E1,3.7E1,1E0],"tree_param":{"num_deleted":"0","num_feature":"25","num_nodes":"57","size_leaf_vector":"1"}},{"base_weights":[1.2636719E-3,2.7831465E-1,-1.0131342E0,-7.5074814E-2,9.3832403E-1,-1.4247683E0,-5.691786E-1,1.9473618E-1,-8.6396766E-1,6.691781E-1,1.613331E0,-1.8909241E0,-9.8574775E-1,-9.659585E-1,-1.1354845E-1,-2.3398052E-1,6.2521607E-1,-1.2555009E0,-4.665122E-1,3.0139947E-1,1.095777E0,1.231518E0,2.013216E0,-1.5923588E-1,-1.7926153E0,-1.1136899E0,-3.0185738E-1,-1.2406198E0,-6.647146E-1,-1.8776542E-1,1.3014904E0,-2.4771908E-2,1.4252514E-2,7.245687E-3,4.2706575E-2,-9.786563E-2,-5.197375E-2,-4.0231097E-2,-1.0029479E-2,-4.8313453E-3,2.9769083E-2,4.1387998E-2,8.256551E-2,5.2184332E-2,9.313273E-2,9.186386E-2,1.24575935E-1,-7.737224E-2,-1.0153506E-1,-1.8047305E-2,-6.132197E-2,-2.3224369E-2,6.854258E-2,-6.61328E-2,-1.6399354E-2,-4.056963E-2,1.2195954E-2,-2.5294373E-2,-3.0272563E-3,8.788722E-2,-4.7307182E-2],"categories":[],"categories_nodes":[],"categories_segments":[],"categories_sizes":[],"default_left":[0,0,0,0,0,0,0,0,0,0,0,0,0,0,0,0,0,0,0,0,0,0,0,0,0,0,0,0,0,0,0,0,0,0,0,0,0,0,0,0,0,0,0,0,0,0,0,0,0,0,0,0,0,0,0,0,0,0,0,0,0],"id":14,"left_children":[1,3,5,7,9,11,13,15,17,19,21,23,25,27,29,31,33,35,37,39,41,43,45,-1,47,49,51,53,55,57,59,-1,-1,-1,-1,-1,-1,-1,-1,-1,-1,-1,-1,-1,-1,-1,-1,-1,-1,-1,-1,-1,-1,-1,-1,-1,-1,-1,-1,-1,-1],"loss_changes":[9.130996E2,5.952998E2,1.265639E2,3.5414105E2,1.6061145E2,7.201538E1,6.081481E1,2.2899316E2,6.5395905E1,9.976807E1,3.6149048E1,1.6422363E1,1.6113525E1,1.40685425E1,1.6837519E1,8.454946E1,6.793442E1,3.02583E1,1.8899734E1,4.0309887E1,4.2556396E1,1.3704224E1,5.688904E0,0E0,6.430542E0,1.2967026E1,9.069755E0,6.529007E0,1.192625E1,6.08058E0,9.867013E0,0E0,0E0,0E0,0E0,0E0,0E0,0E0,0E0,0E0,0E0,0E0,0E0,0E0,0E0,0E0,0E0,0E0,0E0,0E0,0E0,0E0,0E0,0E0,0E0,0E0,0E0,0E0,0E0,0E0,0E0],"parents":[2147483647,0,0,1,1,2,2,3,3,4,4,5,5,6,6,7,7,8,8,9,9,10,10,11,11,12,12,13,13,14,14,15,15,16,16,17,17,18,18,19,19,20,20,21,21,22,22,24,24,25,25,26,26,27,27,28,28,29,29,30,30],"right_children":[2,4,6,8,10,12,14,16,18,20,22,24,26,28,30,32,34,36,38,40,42,44,46,-1,48,50,52,54,56,58,60,-1,-1,-1,-1,-1,-1,-1,-1,-1,-1,-1,-1,-1,-1,-1,-1,-1,-1,-1,-1,-1,-1,-1,-1,-1,-1,-1,-1,-1,-1],"split_conditions":[1E0,6.2E1,5.6E1,1E0,1E0,1E0,1E0,1E0,1E0,1E0,1E0,1.8E1,5.1E1,6.9E1,9.4E1,1E0,3.9E1,3.4E1,4.6E1,7.1E1,1E0,8.4E1,8.2E1,-1.5923588E-1,4.5E1,2.3E1,1E0,1E0,1E0,6.2E1,1E0,-2.4771908E-2,1.4252514E-2,7.245687E-3,4.2706575E-2,-9.786563E-2,-5.197375E-2,-4.0231097E-2,-1.0029479E-2,-4.8313453E-3,2.9769083E-2,4.1387998E-2,8.256551E-2,5.2184332E-2,9.313273E-2,9.186386E-2,1.24575935E-1,-7.737224E-2,-1.0153506E-1,-1.8047305E-2,-6.132197E-2,-2.3224369E-2,6.854258E-2,-6.61328E-2,-1.6399354E-2,-4.056963E-2,1.2195954E-2,-2.5294373E-2,-3.0272563E-3,8.788722E-2,-4.7307182E-2],"split_indices":[19,0,0,17,18,6,6,6,6,6,6,0,0,0,0,18,0,0,0,0,16,0,0,0,0,0,15,8,9,0,24,0,0,0,0,0,0,0,0,0,0,0,0,0,0,0,0,0,0,0,0,0,0,0,0,0,0,0,0,0,0],"split_type":[0,0,0,0,0,0,0,0,0,0,0,0,0,0,0,0,0,0,0,0,0,0,0,0,0,0,0,0,0,0,0,0,0,0,0,0,0,0,0,0,0,0,0,0,0,0,0,0,0,0,0,0,0,0,0,0,0,0,0,0,0],"sum_hessian":[3.247E3,2.551E3,6.96E2,1.662E3,8.89E2,3.6E2,3.36E2,1.239E3,4.23E2,6.37E2,2.52E2,1.73E2,1.87E2,1.79E2,1.57E2,6.21E2,6.18E2,2.12E2,2.11E2,3.43E2,2.94E2,1.31E2,1.21E2,1E1,1.63E2,1.57E2,3E1,9.2E1,8.7E1,1.5E2,7E0,4.13E2,2.08E2,2E2,4.18E2,4.8E1,1.64E2,9.2E1,1.19E2,1.46E2,1.97E2,2E2,9.4E1,1.03E2,2.8E1,9.2E1,2.9E1,8.4E1,7.9E1,2.1E1,1.36E2,2.8E1,2E0,8.4E1,8E0,7.5E1,1.2E1,4.2E1,1.08E2,6E0,1E0],"tree_param":{"num_deleted":"0","num_feature":"25","num_nodes":"61","size_leaf_vector":"1"}},{"base_weights":[4.74004E-3,2.7671617E-1,-9.9810404E-1,-2.4944565E-1,7.1440685E-1,-1.5154936E0,-5.5912113E-1,2.2325935E-2,-1.0218279E0,9.681119E-1,-8.248355E-2,-1.8222576E0,-1.1587704E0,-9.455362E-1,-2.1498232E-1,-4.0455666E-1,4.2560506E-1,-1.4941169E0,-5.968767E-1,7.9293525E-1,2.0103226E0,-2.596806E-1,1.1472027E0,-1.7648829E0,-1.3135144E-1,-1.0527818E0,-1.3986762E0,-1.1063259E0,-6.7621335E-2,-3.1528708E-1,1.6922456E0,-2.237557E-2,-2.2623306E-3,1.4944947E-2,2.7236039E-2,-7.024786E-2,-1.0717256E-1,-3.6147777E-2,1.0769072E-2,2.0051608E-2,6.222269E-2,8.999393E-2,1.8851484E-1,-3.1866938E-2,7.330177E-3,3.7646923E-2,1.3643545E-1,-9.073933E-2,-6.869482E-2,-5.8075935E-2,-1.2762964E-2,-7.785103E-2,-2.6554236E-2,-5.887289E-2,-1.732338E-2,-2.2236064E-2,1.21499365E-2,-1.6889995E-2,4.0237665E-2,4.729192E-2,1.2876984E-1],"categories":[],"categories_nodes":[],"categories_segments":[],"categories_sizes":[],"default_left":[0,0,0,0,0,0,0,0,0,0,0,0,0,0,0,0,0,0,0,0,0,0,0,0,0,0,0,0,0,0,0,0,0,0,0,0,0,0,0,0,0,0,0,0,0,0,0,0,0,0,0,0,0,0,0,0,0,0,0,0,0],"id":15,"left_children":[1,3,5,7,9,11,13,15,17,19,21,23,25,27,29,31,33,35,37,39,41,43,45,47,-1,49,51,53,55,57,59,-1,-1,-1,-1,-1,-1,-1,-1,-1,-1,-1,-1,-1,-1,-1,-1,-1,-1,-1,-1,-1,-1,-1,-1,-1,-1,-1,-1,-1,-1],"loss_changes":[8.706203E2,5.784517E2,1.5382495E2,2.3953189E2,2.772619E2,3.2030518E1,4.899948E1,1.4564133E2,5.8716034E1,1.882796E2,7.263964E1,3.0284424E0,2.2653046E0,2.4486969E1,3.8220444E1,6.3231583E0,6.402504E0,5.0937805E0,1.633627E1,1.5734167E2,4.8400024E1,4.474347E1,2.4133774E1,5.8947754E-1,0E0,8.895851E0,4.942978E0,7.53743E0,3.3878412E0,5.0123196E0,4.1559944E0,0E0,0E0,0E0,0E0,0E0,0E0,0E0,0E0,0E0,0E0,0E0,0E0,0E0,0E0,0E0,0E0,0E0,0E0,0E0,0E0,0E0,0E0,0E0,0E0,0E0,0E0,0E0,0E0,0E0,0E0],"parents":[2147483647,0,0,1,1,2,2,3,3,4,4,5,5,6,6,7,7,8,8,9,9,10,10,11,11,12,12,13,13,14,14,15,15,16,16,17,17,18,18,19,19,20,20,21,21,22,22,23,23,25,25,26,26,27,27,28,28,29,29,30,30],"right_children":[2,4,6,8,10,12,14,16,18,20,22,24,26,28,30,32,34,36,38,40,42,44,46,48,-1,50,52,54,56,58,60,-1,-1,-1,-1,-1,-1,-1,-1,-1,-1,-1,-1,-1,-1,-1,-1,-1,-1,-1,-1,-1,-1,-1,-1,-1,-1,-1,-1,-1,-1],"split_conditions":[1E0,1E0,1E0,1E0,1E0,1E0,1E0,1E0,1E0,3E0,3E0,1E0,1E0,3E0,4E0,1E0,1E0,1E0,1E0,1E0,5E0,1E0,1E0,1E0,-1.3135144E-1,1E0,1E0,1E0,1E0,4E0,6E0,-2.237557E-2,-2.2623306E-3,1.4944947E-2,2.7236039E-2,-7.024786E-2,-1.0717256E-1,-3.6147777E-2,1.0769072E-2,2.0051608E-2,6.222269E-2,8.999393E-2,1.8851484E-1,-3.1866938E-2,7.330177E-3,3.7646923E-2,1.3643545E-1,-9.073933E-2,-6.869482E-2,-5.8075935E-2,-1.2762964E-2,-7.785103E-2,-2.6554236E-2,-5.887289E-2,-1.732338E-2,-2.2236064E-2,1.21499365E-2,-1.6889995E-2,4.0237665E-2,4.729192E-2,1.2876984E-1],"split_indices":[19,1,1,17,17,6,6,6,6,1,1,24,21,1,1,13,22,11,13,6,1,6,10,23,0,15,13,9,3,2,1,0,0,0,0,0,0,0,0,0,0,0,0,0,0,0,0,0,0,0,0,0,0,0,0,0,0,0,0,0,0],"split_type":[0,0,0,0,0,0,0,0,0,0,0,0,0,0,0,0,0,0,0,0,0,0,0,0,0,0,0,0,0,0,0,0,0,0,0,0,0,0,0,0,0,0,0,0,0,0,0,0,0,0,0,0,0,0,0,0,0,0,0,0,0],"sum_hessian":[3.19E3,2.51E3,6.8E2,1.14E3,1.37E3,3.11E2,3.69E2,8.44E2,2.96E2,1.039E3,3.31E2,1.65E2,1.46E2,1.73E2,1.96E2,4.1E2,4.34E2,1.39E2,1.57E2,8.91E2,1.48E2,2.9E2,4.1E1,1.57E2,8E0,1.05E2,4.1E1,1.46E2,2.7E1,1.87E2,9E0,3.66E2,4.4E1,2.12E2,2.22E2,1.25E2,1.4E1,1.36E2,2.1E1,4.78E2,4.13E2,1.34E2,1.4E1,1.5E2,1.4E2,3.4E1,7E0,1.36E2,2.1E1,9.2E1,1.3E1,3.4E1,7E0,1.33E2,1.3E1,1.2E1,1.5E1,1.84E2,3E0,6E0,3E0],"tree_param":{"num_deleted":"0","num_feature":"25","num_nodes":"61","size_leaf_vector":"1"}},{"base_weights":[9.87893E-4,2.491282E-1,-8.9550894E-1,-7.7035325E-3,1.1732694E0,-1.3962945E0,-4.7737497E-1,2.087736E-1,-6.883676E-1,1.4261026E0,3.854779E-1,-1.6560974E0,-1.1088674E0,-1.023594E0,-1.7247872E-1,-1.4969459E-1,5.895748E-1,-9.659842E-1,-1.655847E-1,1.2562779E0,2.5907164E0,-1.12268314E-1,8.097592E-1,-2.5850465E0,-1.559641E0,-1.2623458E0,-4.0379357E-1,-1.3528732E0,-7.862375E-1,-6.2868214E-1,2.925449E-1,-1.9551056E-2,1.8697735E-2,5.354745E-3,4.3244913E-2,-6.5507695E-2,-2.8787732E-2,-1.8403491E-2,3.1865757E-2,4.1499376E-2,8.47301E-2,1.0506534E-1,1.82892E-1,-1.6939377E-2,7.436999E-2,1.9805983E-2,7.499036E-2,-1.3465057E-1,-2.9537499E-2,-7.8727745E-2,-1.4703243E-2,-1.2833572E-2,-6.687558E-2,5.828436E-2,-3.5076898E-2,-1.1316889E-1,-5.6518216E-2,2.6259651E-2,-4.3910798E-2,-3.9506476E-2,2.6028043E-2,9.0683745E-3,7.0402265E-2],"categories":[],"categories_nodes":[],"categories_segments":[],"categories_sizes":[],"default_left":[0,0,0,0,0,0,0,0,0,0,0,0,0,0,0,0,0,0,0,0,0,0,0,0,0,0,0,0,0,0,0,0,0,0,0,0,0,0,0,0,0,0,0,0,0,0,0,0,0,0,0,0,0,0,0,0,0,0,0,0,0,0,0],"id":16,"left_children":[1,3,5,7,9,11,13,15,17,19,21,23,25,27,29,31,33,35,37,39,41,43,45,47,49,51,53,55,57,59,61,-1,-1,-1,-1,-1,-1,-1,-1,-1,-1,-1,-1,-1,-1,-1,-1,-1,-1,-1,-1,-1,-1,-1,-1,-1,-1,-1,-1,-1,-1,-1,-1],"loss_changes":[7.183143E2,6.002641E2,1.4591028E2,2.9189316E2,1.08999146E2,2.1910095E1,6.3608315E1,2.0525546E2,6.9213715E1,7.902185E1,2.8600805E1,1.0752777E1,1.6155151E1,9.643768E0,5.2583828E1,9.808333E1,9.674631E1,4.1148926E1,2.7384647E1,6.679498E1,1.9471313E1,2.3332314E1,2.0242374E1,1.4235001E0,2.4059143E0,9.18132E0,1.4369595E1,8.786903E0,1.0352356E1,2.3604092E1,1.4998898E1,0E0,0E0,0E0,0E0,0E0,0E0,0E0,0E0,0E0,0E0,0E0,0E0,0E0,0E0,0E0,0E0,0E0,0E0,0E0,0E0,0E0,0E0,0E0,0E0,0E0,0E0,0E0,0E0,0E0,0E0,0E0,0E0],"parents":[2147483647,0,0,1,1,2,2,3,3,4,4,5,5,6,6,7,7,8,8,9,9,10,10,11,11,12,12,13,13,14,14,15,15,16,16,17,17,18,18,19,19,20,20,21,21,22,22,23,23,24,24,25,25,26,26,27,27,28,28,29,29,30,30],"right_children":[2,4,6,8,10,12,14,16,18,20,22,24,26,28,30,32,34,36,38,40,42,44,46,48,50,52,54,56,58,60,62,-1,-1,-1,-1,-1,-1,-1,-1,-1,-1,-1,-1,-1,-1,-1,-1,-1,-1,-1,-1,-1,-1,-1,-1,-1,-1,-1,-1,-1,-1,-1,-1],"split_conditions":[1E0,2E0,1E0,1E0,1E0,1E0,5.1E1,1E0,5.7E1,4E0,1E0,2.5E1,6.5E1,1E0,1E0,1E0,4.5E1,1E0,8.1E1,1E0,5E0,4E0,3E0,1E0,9E1,2.3E1,6.9E1,2.5E1,1.4E1,1E0,4E0,-1.9551056E-2,1.8697735E-2,5.354745E-3,4.3244913E-2,-6.5507695E-2,-2.8787732E-2,-1.8403491E-2,3.1865757E-2,4.1499376E-2,8.47301E-2,1.0506534E-1,1.82892E-1,-1.6939377E-2,7.436999E-2,1.9805983E-2,7.499036E-2,-1.3465057E-1,-2.9537499E-2,-7.8727745E-2,-1.4703243E-2,-1.2833572E-2,-6.687558E-2,5.828436E-2,-3.5076898E-2,-1.1316889E-1,-5.6518216E-2,2.6259651E-2,-4.3910798E-2,-3.9506476E-2,2.6028043E-2,9.0683745E-3,7.0402265E-2],"split_indices":[19,1,1,17,17,6,0,6,0,1,6,0,0,6,6,18,0,6,0,6,1,1,1,10,0,0,0,0,0,9,1,0,0,0,0,0,0,0,0,0,0,0,0,0,0,0,0,0,0,0,0,0,0,0,0,0,0,0,0,0,0,0,0],"split_type":[0,0,0,0,0,0,0,0,0,0,0,0,0,0,0,0,0,0,0,0,0,0,0,0,0,0,0,0,0,0,0,0,0,0,0,0,0,0,0,0,0,0,0,0,0,0,0,0,0,0,0,0,0,0,0,0,0,0,0,0,0,0,0],"sum_hessian":[3.227E3,2.528E3,6.99E2,1.979E3,5.49E2,3.17E2,3.82E2,1.502E3,4.77E2,4.15E2,1.34E2,1.64E2,1.53E2,1.36E2,2.46E2,7.74E2,7.28E2,3.11E2,1.66E2,3.64E2,5.1E1,6.2E1,7.2E1,1.3E1,1.51E2,1.25E2,2.8E1,5.5E1,8.1E1,1.24E2,1.22E2,5.3E2,2.44E2,2.65E2,4.63E2,1.64E2,1.47E2,1.33E2,3.3E1,1.86E2,1.78E2,3.7E1,1.4E1,5.5E1,7E0,4.6E1,2.6E1,1.2E1,1E0,1.49E2,2E0,9E0,1.16E2,4E0,2.4E1,9E0,4.6E1,5E0,7.6E1,1.09E2,1.5E1,1.12E2,1E1],"tree_param":{"num_deleted":"0","num_feature":"25","num_nodes":"63","size_leaf_vector":"1"}},{"base_weights":[1.5319297E-2,-2.2413717E-1,9.544771E-1,-7.0713395E-1,1.860501E-1,6.9297945E-1,1.8006935E0,-4.9895772E-1,-1.3243752E0,4.5998663E-1,-5.4856294E-1,3.7090465E-1,1.0084962E0,1.5257607E0,2.3106432E0,-8.6903167E-1,-1.2354437E-1,-1.593635E0,-1.0534773E0,5.1590316E-2,9.097934E-1,-1.0667247E0,-2.661887E-1,-7.2893566E-1,4.8022667E-1,7.527013E-1,1.3289481E0,1.1594415E0,1.8494686E0,1.9716449E0,3.7112303E0,-5.5122383E-2,-1.8160217E-2,5.8031264E-3,-2.8464114E-2,-1.1009832E-1,-7.25464E-2,-5.5023085E-2,2.6928026E-2,-1.03901345E-2,3.726672E-2,3.1484257E-2,7.688375E-2,-7.4599415E-2,-3.9201822E-2,-3.0401984E-2,5.489279E-3,-2.7125582E-2,-7.394109E-2,8.713155E-3,4.1536476E-2,2.534332E-2,5.4705627E-2,1.5652284E-2,7.077588E-2,4.55372E-2,8.758301E-2,7.836048E-2,1.1360394E-1,1.0111407E-1,3.0276014E-2,2.0731841E-1,7.294162E-2],"categories":[],"categories_nodes":[],"categories_segments":[],"categories_sizes":[],"default_left":[0,0,0,0,0,0,0,0,0,0,0,0,0,0,0,0,0,0,0,0,0,0,0,0,0,0,0,0,0,0,0,0,0,0,0,0,0,0,0,0,0,0,0,0,0,0,0,0,0,0,0,0,0,0,0,0,0,0,0,0,0,0,0],"id":17,"left_children":[1,3,5,7,9,11,13,15,17,19,21,23,25,27,29,31,33,35,37,39,41,43,45,47,49,51,53,55,57,59,61,-1,-1,-1,-1,-1,-1,-1,-1,-1,-1,-1,-1,-1,-1,-1,-1,-1,-1,-1,-1,-1,-1,-1,-1,-1,-1,-1,-1,-1,-1,-1,-1],"loss_changes":[7.2502606E2,5.090996E2,1.4369293E2,1.5096326E2,2.7997223E2,5.0639206E1,1.8065582E1,1.2270738E2,1.9984863E1,1.8604059E2,5.5023315E1,3.0409245E1,1.9738098E1,1.00694275E1,1.7372162E1,5.2139923E1,4.7058895E1,9.56665E0,1.1887619E1,9.588954E1,8.3803406E1,1.4819092E1,3.1684443E1,2.4130478E0,2.4306206E1,1.1447533E1,9.318893E0,5.91613E0,2.761322E0,1.8191986E0,2.7720718E0,0E0,0E0,0E0,0E0,0E0,0E0,0E0,0E0,0E0,0E0,0E0,0E0,0E0,0E0,0E0,0E0,0E0,0E0,0E0,0E0,0E0,0E0,0E0,0E0,0E0,0E0,0E0,0E0,0E0,0E0,0E0,0E0],"parents":[2147483647,0,0,1,1,2,2,3,3,4,4,5,5,6,6,7,7,8,8,9,9,10,10,11,11,12,12,13,13,14,14,15,15,16,16,17,17,18,18,19,19,20,20,21,21,22,22,23,23,24,24,25,25,26,26,27,27,28,28,29,29,30,30],"right_children":[2,4,6,8,10,12,14,16,18,20,22,24,26,28,30,32,34,36,38,40,42,44,46,48,50,52,54,56,58,60,62,-1,-1,-1,-1,-1,-1,-1,-1,-1,-1,-1,-1,-1,-1,-1,-1,-1,-1,-1,-1,-1,-1,-1,-1,-1,-1,-1,-1,-1,-1,-1,-1],"split_conditions":[1E0,1E0,2E0,1E0,1E0,1E0,3E0,1E0,1E0,1E0,5.1E1,2.8E1,1E0,1E0,1E0,1E0,1E0,3.6E1,9E1,7.1E1,1E0,1E0,1E0,1E0,1E0,5.4E1,2.2E1,7.8E1,1E0,1E0,1E0,-5.5122383E-2,-1.8160217E-2,5.8031264E-3,-2.8464114E-2,-1.1009832E-1,-7.25464E-2,-5.5023085E-2,2.6928026E-2,-1.03901345E-2,3.726672E-2,3.1484257E-2,7.688375E-2,-7.4599415E-2,-3.9201822E-2,-3.0401984E-2,5.489279E-3,-2.7125582E-2,-7.394109E-2,8.713155E-3,4.1536476E-2,2.534332E-2,5.4705627E-2,1.5652284E-2,7.077588E-2,4.55372E-2,8.758301E-2,7.836048E-2,1.1360394E-1,1.0111407E-1,3.0276014E-2,2.0731841E-1,7.294162E-2],"split_indices":[18,1,1,19,19,6,1,6,6,6,0,0,1,6,15,16,17,0,0,0,16,6,6,15,1,0,0,0,21,23,7,0,0,0,0,0,0,0,0,0,0,0,0,0,0,0,0,0,0,0,0,0,0,0,0,0,0,0,0,0,0,0,0],"split_type":[0,0,0,0,0,0,0,0,0,0,0,0,0,0,0,0,0,0,0,0,0,0,0,0,0,0,0,0,0,0,0,0,0,0,0,0,0,0,0,0,0,0,0,0,0,0,0,0,0,0,0,0,0,0,0,0,0,0,0,0,0,0,0],"sum_hessian":[3.222E3,2.568E3,6.54E2,1.179E3,1.389E3,5.01E2,1.53E2,8.83E2,2.96E2,1.012E3,3.77E2,2.49E2,2.52E2,1.02E2,5.1E1,4.44E2,4.39E2,1.46E2,1.5E2,5.31E2,4.81E2,1.32E2,2.45E2,2.2E1,2.27E2,1.42E2,1.1E2,5E1,5.2E1,4.3E1,8E0,3.03E2,1.41E2,2.86E2,1.53E2,2.5E1,1.21E2,1.46E2,4E0,3.87E2,1.44E2,3.34E2,1.47E2,5.1E1,8.1E1,1.28E2,1.17E2,1.9E1,3E0,1.22E2,1.05E2,8.4E1,5.8E1,9E0,1.01E2,3.7E1,1.3E1,3.4E1,1.8E1,4.1E1,2E0,6E0,2E0],"tree_param":{"num_deleted":"0","num_feature":"25","num_nodes":"63","size_leaf_vector":"1"}},{"base_weights":[-2.9019522E-3,-2.2088693E-1,8.67701E-1,-4.2438388E-1,4.228957E-1,6.315196E-1,1.1107873E0,-6.564544E-1,4.0402092E-2,1.1615062E-1,7.3124E-1,5.917478E-1,1.2555629E0,1.1843009E0,6.710684E-1,-9.7620016E-1,-3.4482047E-1,-3.1274283E-1,4.212701E-1,1.9586556E-1,-3.6472017E-1,7.731468E-1,-2.1300928E-1,5.004435E-1,6.711654E-1,1.4880208E0,5.039007E-1,1.2334502E0,8.278377E-1,4.2145588E-2,4.932428E-1,-5.6145854E-2,-4.0656757E-2,-2.7408347E-2,-6.1647957E-3,-1.0646366E-2,-2.1732634E-2,2.7829865E-2,1.3901877E-2,6.9352365E-3,3.0109053E-2,-1.4982131E-2,-4.784273E-2,3.5084095E-2,5.960181E-2,2.2991909E-2,-3.8756233E-2,2.0026935E-2,5.475356E-2,3.6400855E-2,1.4425765E-2,8.2584664E-2,3.329582E-2,3.4812536E-2,3.973357E-3,6.396384E-2,4.4382904E-2,4.38092E-2,1.7642697E-2,3.3709418E-2,6.8155527E-3],"categories":[],"categories_nodes":[],"categories_segments":[],"categories_sizes":[],"default_left":[0,0,0,0,0,0,0,0,0,0,0,0,0,0,0,0,0,0,0,0,0,0,0,0,0,0,0,0,0,0,0,0,0,0,0,0,0,0,0,0,0,0,0,0,0,0,0,0,0,0,0,0,0,0,0,0,0,0,0,0,0],"id":18,"left_children":[1,3,5,7,9,11,13,15,17,19,21,23,25,27,29,31,33,35,37,39,41,43,45,47,49,51,53,55,57,-1,59,-1,-1,-1,-1,-1,-1,-1,-1,-1,-1,-1,-1,-1,-1,-1,-1,-1,-1,-1,-1,-1,-1,-1,-1,-1,-1,-1,-1,-1,-1],"loss_changes":[6.1602246E2,3.4027576E2,3.6616608E1,2.1284045E2,5.8934914E1,7.49704E0,9.517029E0,1.3079443E2,8.86338E1,1.2107869E1,1.2471115E1,1.940979E0,2.5700512E0,3.7443237E0,1.0510292E0,1.4613831E1,3.0023293E1,4.0690727E0,5.9897385E0,6.187314E0,1.4473457E0,8.084473E0,5.6514826E0,8.472309E0,3.3794174E0,7.838917E-1,4.3450975E-1,2.6200562E0,5.1752853E-1,0E0,1.587316E0,0E0,0E0,0E0,0E0,0E0,0E0,0E0,0E0,0E0,0E0,0E0,0E0,0E0,0E0,0E0,0E0,0E0,0E0,0E0,0E0,0E0,0E0,0E0,0E0,0E0,0E0,0E0,0E0,0E0,0E0],"parents":[2147483647,0,0,1,1,2,2,3,3,4,4,5,5,6,6,7,7,8,8,9,9,10,10,11,11,12,12,13,13,14,14,15,15,16,16,17,17,18,18,19,19,20,20,21,21,22,22,23,23,24,24,25,25,26,26,27,27,28,28,30,30],"right_children":[2,4,6,8,10,12,14,16,18,20,22,24,26,28,30,32,34,36,38,40,42,44,46,48,50,52,54,56,58,-1,60,-1,-1,-1,-1,-1,-1,-1,-1,-1,-1,-1,-1,-1,-1,-1,-1,-1,-1,-1,-1,-1,-1,-1,-1,-1,-1,-1,-1,-1,-1],"split_conditions":[1E0,1E0,1E0,1E0,1E0,1E0,1E0,1E0,1E0,1E0,1E0,1E0,1E0,1E0,1E0,1E0,1E0,1E0,1E0,1E0,1E0,1E0,1E0,1E0,1E0,1E0,1E0,1E0,1E0,4.2145588E-2,1E0,-5.6145854E-2,-4.0656757E-2,-2.7408347E-2,-6.1647957E-3,-1.0646366E-2,-2.1732634E-2,2.7829865E-2,1.3901877E-2,6.9352365E-3,3.0109053E-2,-1.4982131E-2,-4.784273E-2,3.5084095E-2,5.960181E-2,2.2991909E-2,-3.8756233E-2,2.0026935E-2,5.475356E-2,3.6400855E-2,1.4425765E-2,8.2584664E-2,3.329582E-2,3.4812536E-2,3.973357E-3,6.396384E-2,4.4382904E-2,4.38092E-2,1.7642697E-2,3.3709418E-2,6.8155527E-3],"split_indices":[18,16,6,20,6,24,11,6,6,23,24,3,11,13,22,17,17,3,3,9,8,13,3,10,10,8,3,9,23,0,3,0,0,0,0,0,0,0,0,0,0,0,0,0,0,0,0,0,0,0,0,0,0,0,0,0,0,0,0,0,0],"split_type":[0,0,0,0,0,0,0,0,0,0,0,0,0,0,0,0,0,0,0,0,0,0,0,0,0,0,0,0,0,0,0,0,0,0,0,0,0,0,0,0,0,0,0,0,0,0,0,0,0,0,0,0,0,0,0,0,0,0,0,0,0],"sum_hessian":[3.244E3,2.595E3,6.49E2,1.972E3,6.23E2,3.31E2,3.18E2,1.315E3,6.57E2,3.13E2,3.1E2,3.13E2,1.8E1,2.71E2,4.7E1,6.48E2,6.67E2,3.41E2,3.16E2,2.69E2,4.4E1,2.97E2,1.3E1,1.49E2,1.64E2,1.3E1,5E0,2.36E2,3.5E1,2.2E1,2.5E1,3.38E2,3.1E2,3.47E2,3.2E2,1.89E2,1.52E2,1.61E2,1.55E2,2.37E2,3.2E1,4.1E1,3E0,2.56E2,4.1E1,6E0,7E0,1.29E2,2E1,1.42E2,2.2E1,1E1,3E0,3E0,2E0,2.06E2,3E1,3.1E1,4E0,1.6E1,9E0],"tree_param":{"num_deleted":"0","num_feature":"25","num_nodes":"61","size_leaf_vector":"1"}},{"base_weights":[-2.8036889E-2,-4.9850222E-1,3.6448163E-1,-2.7858162E-1,-1.2905864E0,1.5028128E-1,1.1940148E0,-6.767706E-1,8.996047E-2,-1.9826047E0,-1.1806031E0,-2.888504E-1,4.8724115E-1,8.87661E-1,1.5781254E0,-4.616764E-1,-1.3155906E0,3.0317944E-1,-5.56067E-1,-1.6118492E0,-2.2766056E0,-1.3914834E0,-9.434049E-1,-6.369173E-1,6.7140676E-2,2.934321E-1,1.140255E0,6.055823E-1,1.1928147E0,1.3510586E0,2.0856435E0,-6.772761E-2,-1.9156447E-2,-7.630166E-2,-1.5167477E-2,5.4752827E-4,2.93818E-2,-3.6026698E-2,2.0931568E-2,-8.517721E-2,7.843721E-3,-2.0883156E-2,-1.1743348E-1,-7.10409E-2,2.3042528E-2,-5.4711934E-2,-3.4370467E-2,-2.1713637E-2,-6.5076284E-2,-6.940873E-3,4.738041E-2,3.1508207E-3,4.9904194E-2,3.2882605E-2,8.0777526E-2,4.7134813E-2,1.576711E-2,8.142108E-3,6.3599706E-2,5.0492156E-2,8.559243E-2,8.14659E-2,1.3101086E-1],"categories":[],"categories_nodes":[],"categories_segments":[],"categories_sizes":[],"default_left":[0,0,0,0,0,0,0,0,0,0,0,0,0,0,0,0,0,0,0,0,0,0,0,0,0,0,0,0,0,0,0,0,0,0,0,0,0,0,0,0,0,0,0,0,0,0,0,0,0,0,0,0,0,0,0,0,0,0,0,0,0,0,0],"id":19,"left_children":[1,3,5,7,9,11,13,15,17,19,21,23,25,27,29,31,33,35,37,39,41,43,45,47,49,51,53,55,57,59,61,-1,-1,-1,-1,-1,-1,-1,-1,-1,-1,-1,-1,-1,-1,-1,-1,-1,-1,-1,-1,-1,-1,-1,-1,-1,-1,-1,-1,-1,-1,-1,-1],"loss_changes":[5.9277606E2,2.5396606E2,3.107716E2,1.6794223E2,2.1786316E1,2.0611462E2,4.0844055E1,7.496617E1,8.212705E1,9.0856934E-1,1.2492889E1,7.500752E1,9.93947E1,1.6665268E1,1.5390167E1,2.8446007E1,2.893364E1,3.7234196E1,2.4026863E1,3.8352737E0,1.8322678E0,8.479401E0,4.383301E0,4.064666E1,5.453338E1,9.8816055E1,4.0225723E1,1.0172035E1,7.6219177E0,1.2059311E1,7.195999E0,0E0,0E0,0E0,0E0,0E0,0E0,0E0,0E0,0E0,0E0,0E0,0E0,0E0,0E0,0E0,0E0,0E0,0E0,0E0,0E0,0E0,0E0,0E0,0E0,0E0,0E0,0E0,0E0,0E0,0E0,0E0,0E0],"parents":[2147483647,0,0,1,1,2,2,3,3,4,4,5,5,6,6,7,7,8,8,9,9,10,10,11,11,12,12,13,13,14,14,15,15,16,16,17,17,18,18,19,19,20,20,21,21,22,22,23,23,24,24,25,25,26,26,27,27,28,28,29,29,30,30],"right_children":[2,4,6,8,10,12,14,16,18,20,22,24,26,28,30,32,34,36,38,40,42,44,46,48,50,52,54,56,58,60,62,-1,-1,-1,-1,-1,-1,-1,-1,-1,-1,-1,-1,-1,-1,-1,-1,-1,-1,-1,-1,-1,-1,-1,-1,-1,-1,-1,-1,-1,-1,-1,-1],"split_conditions":[1E0,1E0,1E0,1E0,3.2E1,5.7E1,2E0,1E0,1E0,1E0,1E0,1E0,1E0,1E0,7.7E1,2.6E1,6E1,4.8E1,6.6E1,1E0,4E0,9E1,5.4E1,1E0,1E0,3E0,1E0,1E0,2.4E1,1E0,1E0,-6.772761E-2,-1.9156447E-2,-7.630166E-2,-1.5167477E-2,5.4752827E-4,2.93818E-2,-3.6026698E-2,2.0931568E-2,-8.517721E-2,7.843721E-3,-2.0883156E-2,-1.1743348E-1,-7.10409E-2,2.3042528E-2,-5.4711934E-2,-3.4370467E-2,-2.1713637E-2,-6.5076284E-2,-6.940873E-3,4.738041E-2,3.1508207E-3,4.9904194E-2,3.2882605E-2,8.0777526E-2,4.7134813E-2,1.576711E-2,8.142108E-3,6.3599706E-2,5.0492156E-2,8.559243E-2,8.14659E-2,1.3101086E-1],"split_indices":[1,19,18,6,0,0,1,17,17,3,6,6,16,6,0,0,0,0,0,14,0,0,0,19,16,1,6,2,0,6,21,0,0,0,0,0,0,0,0,0,0,0,0,0,0,0,0,0,0,0,0,0,0,0,0,0,0,0,0,0,0,0,0],"split_type":[0,0,0,0,0,0,0,0,0,0,0,0,0,0,0,0,0,0,0,0,0,0,0,0,0,0,0,0,0,0,0,0,0,0,0,0,0,0,0,0,0,0,0,0,0,0,0,0,0,0,0,0,0,0,0,0,0,0,0,0,0,0,0],"sum_hessian":[3.208E3,1.459E3,1.749E3,1.143E3,3.16E2,1.391E3,3.58E2,5.49E2,5.94E2,4.1E1,2.75E2,6.04E2,7.87E2,2.01E2,1.57E2,4.12E2,1.37E2,4.47E2,1.47E2,2.1E1,2E1,1.43E2,1.32E2,3.05E2,2.99E2,6.08E2,1.79E2,1.06E2,9.5E1,1.11E2,4.6E1,3.2E1,3.8E2,1.13E2,2.4E1,2.21E2,2.26E2,1.26E2,2.1E1,2E1,1E0,1E0,1.9E1,1.41E2,2E0,8.1E1,5.1E1,2.35E2,7E1,2.43E2,5.6E1,4.59E2,1.49E2,9E1,8.9E1,4.8E1,5.8E1,7E0,8.8E1,5.9E1,5.2E1,2.7E1,1.9E1],"tree_param":{"num_deleted":"0","num_feature":"25","num_nodes":"63","size_leaf_vector":"1"}},{"base_weights":[-1.1768977E-3,-4.5659384E-1,3.850498E-1,-6.618081E-1,3.4130776E-1,6.041962E-1,-4.09135E-1,-8.47048E-1,-3.0581478E-2,-4.1716728E-1,4.2620528E-1,4.3538716E-1,1.5371761E0,-5.511677E-1,3.6800948E-1,-1.4106694E0,-6.927013E-1,-3.9553016E-1,2.824501E-1,-1.2508596E0,-1.5662503E-1,5.526212E-1,7.478428E-2,2.3847988E-1,9.6794236E-1,1.2360379E0,2.087379E0,-3.8056412E-1,-9.8212665E-1,9.835662E-2,1.3710113E0,-8.4852554E-2,-4.4608504E-2,-2.4608195E-2,-5.2264135E-2,-1.3681769E-2,-4.7857333E-2,1.2008815E-2,8.298582E-2,-6.738565E-2,-1.6743494E-2,1.1199141E-2,-4.729193E-2,3.3150468E-2,1.30792735E-2,-1.8672807E-2,2.2607354E-2,-2.3676548E-2,2.0336304E-2,2.080235E-2,5.663346E-2,4.1390054E-2,7.7516876E-2,1.0712006E-1,7.220888E-3,-3.9257858E-2,-1.1511088E-2,-6.0308512E-2,-2.8141763E-3,-4.303944E-2,9.264605E-3,1.3826175E-1,4.9643934E-2],"categories":[],"categories_nodes":[],"categories_segments":[],"categories_sizes":[],"default_left":[0,0,0,0,0,0,0,0,0,0,0,0,0,0,0,0,0,0,0,0,0,0,0,0,0,0,0,0,0,0,0,0,0,0,0,0,0,0,0,0,0,0,0,0,0,0,0,0,0,0,0,0,0,0,0,0,0,0,0,0,0,0,0],"id":20,"left_children":[1,3,5,7,9,11,13,15,17,19,21,23,25,27,29,31,33,35,37,39,41,43,45,47,49,51,53,55,57,59,61,-1,-1,-1,-1,-1,-1,-1,-1,-1,-1,-1,-1,-1,-1,-1,-1,-1,-1,-1,-1,-1,-1,-1,-1,-1,-1,-1,-1,-1,-1,-1,-1],"loss_changes":[5.477344E2,2.342114E2,2.9350928E2,1.3292163E2,1.9044846E1,2.073822E2,4.0491505E1,7.548981E1,2.9699999E1,6.3204474E0,1.1686928E1,1.1721686E2,3.0888733E1,2.2344887E1,1.5281503E1,2.6401825E1,4.841397E1,7.953064E0,7.7525005E0,1.6970825E-1,7.420992E0,6.059189E0,1.2178454E1,9.830315E1,2.6984161E1,1.57816925E1,7.174011E0,1.3383762E1,1.7978455E1,3.9951503E0,3.5808735E0,0E0,0E0,0E0,0E0,0E0,0E0,0E0,0E0,0E0,0E0,0E0,0E0,0E0,0E0,0E0,0E0,0E0,0E0,0E0,0E0,0E0,0E0,0E0,0E0,0E0,0E0,0E0,0E0,0E0,0E0,0E0,0E0],"parents":[2147483647,0,0,1,1,2,2,3,3,4,4,5,5,6,6,7,7,8,8,9,9,10,10,11,11,12,12,13,13,14,14,15,15,16,16,17,17,18,18,19,19,20,20,21,21,22,22,23,23,24,24,25,25,26,26,27,27,28,28,29,29,30,30],"right_children":[2,4,6,8,10,12,14,16,18,20,22,24,26,28,30,32,34,36,38,40,42,44,46,48,50,52,54,56,58,60,62,-1,-1,-1,-1,-1,-1,-1,-1,-1,-1,-1,-1,-1,-1,-1,-1,-1,-1,-1,-1,-1,-1,-1,-1,-1,-1,-1,-1,-1,-1,-1,-1],"split_conditions":[1E0,1E0,1E0,1E0,2.6E1,3E0,3E0,3.6E1,4.8E1,1.6E1,1E0,1E0,4E0,1E0,8.4E1,1E0,1E0,1E0,9.4E1,1E0,1E0,1E0,1E0,3.9E1,4.4E1,6.9E1,3E0,4.4E1,7.5E1,3.5E1,8.5E1,-8.4852554E-2,-4.4608504E-2,-2.4608195E-2,-5.2264135E-2,-1.3681769E-2,-4.7857333E-2,1.2008815E-2,8.298582E-2,-6.738565E-2,-1.6743494E-2,1.1199141E-2,-4.729193E-2,3.3150468E-2,1.30792735E-2,-1.8672807E-2,2.2607354E-2,-2.3676548E-2,2.0336304E-2,2.080235E-2,5.663346E-2,4.1390054E-2,7.7516876E-2,1.0712006E-1,7.220888E-3,-3.9257858E-2,-1.1511088E-2,-6.0308512E-2,-2.8141763E-3,-4.303944E-2,9.264605E-3,1.3826175E-1,4.9643934E-2],"split_indices":[1,18,19,16,0,1,1,0,0,0,5,18,1,5,0,20,19,14,0,8,5,7,3,0,0,0,2,0,0,0,0,0,0,0,0,0,0,0,0,0,0,0,0,0,0,0,0,0,0,0,0,0,0,0,0,0,0,0,0,0,0,0,0],"split_type":[0,0,0,0,0,0,0,0,0,0,0,0,0,0,0,0,0,0,0,0,0,0,0,0,0,0,0,0,0,0,0,0,0,0,0,0,0,0,0,0,0,0,0,0,0,0,0,0,0,0,0,0,0,0,0,0,0,0,0,0,0,0,0],"sum_hessian":[3.112E3,1.428E3,1.684E3,1.136E3,2.92E2,1.32E3,3.64E2,8.78E2,2.58E2,2.9E1,2.63E2,1.119E3,2.01E2,3.08E2,5.6E1,1.87E2,6.91E2,1.19E2,1.39E2,6E0,2.3E1,1.93E2,7E1,8.18E2,3.01E2,1.32E2,6.9E1,2.22E2,8.6E1,4.5E1,1.1E1,1.19E2,6.8E1,4.42E2,2.49E2,9.9E1,2E1,1.36E2,3E0,5E0,1E0,1.6E1,7E0,1.39E2,5.4E1,3.2E1,3.8E1,1.56E2,6.62E2,7E1,2.31E2,5.9E1,7.3E1,6.7E1,2E0,5.9E1,1.63E2,6.9E1,1.7E1,3E0,4.2E1,1E0,1E1],"tree_param":{"num_deleted":"0","num_feature":"25","num_nodes":"63","size_leaf_vector":"1"}},{"base_weights":[-1.7533883E-2,-2.1594967E-1,7.591143E-1,-6.035188E-1,1.11051545E-1,3.3437502E-1,1.1223968E0,-3.9278886E-1,-1.217419E0,3.079095E-1,-4.161122E-1,5.109141E-2,6.0628986E-1,9.54155E-1,2.0104952E0,-7.134503E-1,-6.677689E-2,-1.4866347E0,-9.490497E-1,1.2104631E-1,1.0015318E0,-5.382694E-1,2.9372233E-1,-9.814739E-1,1.5700923E-1,2.7631178E-1,8.0831504E-1,4.7641975E-1,1.0859498E0,1.8185289E0,3.2751315E0,-7.246288E-2,-2.727226E-2,-9.995277E-3,3.1921107E-2,-8.643085E-2,-5.9004385E-2,-7.312217E-2,-3.7945937E-2,-1.0330684E-2,2.4659123E-2,6.5882534E-2,1.9283159E-2,-1.8022545E-2,-4.8612393E-2,1.6489994E-3,6.786987E-2,-5.6265783E-2,-3.947449E-3,1.9769818E-3,4.391468E-2,2.2296319E-2,-1.3113016E-2,3.6693607E-2,1.0007566E-1,-1.8255891E-2,2.9939452E-2,4.7383048E-2,6.73416E-2,9.8562144E-2,5.489422E-2,3.72432E-2,1.8161061E-1],"categories":[],"categories_nodes":[],"categories_segments":[],"categories_sizes":[],"default_left":[0,0,0,0,0,0,0,0,0,0,0,0,0,0,0,0,0,0,0,0,0,0,0,0,0,0,0,0,0,0,0,0,0,0,0,0,0,0,0,0,0,0,0,0,0,0,0,0,0,0,0,0,0,0,0,0,0,0,0,0,0,0,0],"id":21,"left_children":[1,3,5,7,9,11,13,15,17,19,21,23,25,27,29,31,33,35,37,39,41,43,45,47,49,51,53,55,57,59,61,-1,-1,-1,-1,-1,-1,-1,-1,-1,-1,-1,-1,-1,-1,-1,-1,-1,-1,-1,-1,-1,-1,-1,-1,-1,-1,-1,-1,-1,-1,-1,-1],"loss_changes":[4.9374387E2,3.2349622E2,1.00228516E2,1.5062268E2,1.438584E2,2.3231785E1,5.052643E1,9.1006256E1,2.0119385E1,1.3065778E2,3.2848305E1,1.6449795E1,1.0042896E1,1.8182648E1,7.3962708E0,5.3478424E1,4.0778614E1,8.86438E0,1.3727158E1,9.716145E1,4.1154984E1,2.4498108E1,1.5486561E1,1.7286482E0,1.1488414E1,5.597929E0,6.969536E0,7.0151997E0,7.093567E0,3.33844E0,2.7155533E0,0E0,0E0,0E0,0E0,0E0,0E0,0E0,0E0,0E0,0E0,0E0,0E0,0E0,0E0,0E0,0E0,0E0,0E0,0E0,0E0,0E0,0E0,0E0,0E0,0E0,0E0,0E0,0E0,0E0,0E0,0E0,0E0],"parents":[2147483647,0,0,1,1,2,2,3,3,4,4,5,5,6,6,7,7,8,8,9,9,10,10,11,11,12,12,13,13,14,14,15,15,16,16,17,17,18,18,19,19,20,20,21,21,22,22,23,23,24,24,25,25,26,26,27,27,28,28,29,29,30,30],"right_children":[2,4,6,8,10,12,14,16,18,20,22,24,26,28,30,32,34,36,38,40,42,44,46,48,50,52,54,56,58,60,62,-1,-1,-1,-1,-1,-1,-1,-1,-1,-1,-1,-1,-1,-1,-1,-1,-1,-1,-1,-1,-1,-1,-1,-1,-1,-1,-1,-1,-1,-1,-1,-1],"split_conditions":[1E0,1E0,1E0,1E0,1E0,1E0,3E0,1E0,1E0,7.5E1,3E0,2.6E1,4.5E1,4.2E1,5E0,3.4E1,6.4E1,5.3E1,3.9E1,1E0,1E0,1E0,8.4E1,1E0,1E0,4.1E1,8.4E1,1.6E1,7.3E1,1E0,6.7E1,-7.246288E-2,-2.727226E-2,-9.995277E-3,3.1921107E-2,-8.643085E-2,-5.9004385E-2,-7.312217E-2,-3.7945937E-2,-1.0330684E-2,2.4659123E-2,6.5882534E-2,1.9283159E-2,-1.8022545E-2,-4.8612393E-2,1.6489994E-3,6.786987E-2,-5.6265783E-2,-3.947449E-3,1.9769818E-3,4.391468E-2,2.2296319E-2,-1.3113016E-2,3.6693607E-2,1.0007566E-1,-1.8255891E-2,2.9939452E-2,4.7383048E-2,6.73416E-2,9.8562144E-2,5.489422E-2,3.72432E-2,1.8161061E-1],"split_indices":[18,1,1,19,19,6,1,6,6,0,1,0,0,0,1,0,0,0,0,6,17,5,0,13,13,0,0,0,0,11,0,0,0,0,0,0,0,0,0,0,0,0,0,0,0,0,0,0,0,0,0,0,0,0,0,0,0,0,0,0,0,0,0],"split_type":[0,0,0,0,0,0,0,0,0,0,0,0,0,0,0,0,0,0,0,0,0,0,0,0,0,0,0,0,0,0,0,0,0,0,0,0,0,0,0,0,0,0,0,0,0,0,0,0,0,0,0,0,0,0,0,0,0,0,0,0,0,0,0],"sum_hessian":[3.202E3,2.551E3,6.51E2,1.167E3,1.384E3,3.01E2,3.5E2,8.7E2,2.97E2,1.008E3,3.76E2,1.48E2,1.53E2,2.96E2,5.4E1,4.38E2,4.32E2,1.46E2,1.51E2,7.95E2,2.13E2,3.21E2,5.5E1,1.3E1,1.35E2,5.9E1,9.4E1,6.5E1,2.31E2,4.9E1,5E0,8E1,3.58E2,3.64E2,6.8E1,7.9E1,6.7E1,3.9E1,1.12E2,4.23E2,3.72E2,1.4E2,7.3E1,2.29E2,9.2E1,4.5E1,1E1,1.1E1,2E0,1.17E2,1.8E1,4.5E1,1.4E1,9E1,4E0,8E0,5.7E1,1.54E2,7.7E1,3.9E1,1E1,1E0,4E0],"tree_param":{"num_deleted":"0","num_feature":"25","num_nodes":"63","size_leaf_vector":"1"}},{"base_weights":[-2.5723519E-2,-2.1130832E-1,7.175301E-1,-5.146497E-1,2.1174663E-1,4.3713474E-1,1.1953249E0,-6.8980694E-1,2.7153203E-2,-1.2475998E-1,5.9148914E-1,1.0924507E-1,7.6611215E-1,1.085474E0,1.5800636E0,-9.924058E-1,-3.80537E-1,-2.6116398E-1,3.2989568E-1,-3.9846742E-1,1.8107316E-1,3.9735857E-1,1.2545449E0,-6.082904E-1,2.1808243E-1,3.8359076E-1,8.58766E-1,8.530857E-1,1.3238761E0,1.8152201E0,8.45717E-1,-8.1515245E-2,-4.21097E-2,-2.8145367E-2,1.5474212E-3,-2.3186477E-2,1.368226E-2,-5.585979E-3,2.6676003E-2,-2.709267E-2,9.699067E-3,3.1330641E-3,2.3178458E-2,1.01934355E-2,3.8626652E-2,5.5739325E-2,1.0160779E-1,-1.2714612E-2,-4.178854E-2,9.131437E-2,9.46335E-3,3.487122E-2,7.7420124E-3,4.6108257E-2,1.8284695E-2,3.678769E-2,7.7731706E-2,8.155981E-2,5.2269816E-2,9.8325014E-2,2.268632E-2,5.396917E-2,-1.8542703E-2],"categories":[],"categories_nodes":[],"categories_segments":[],"categories_sizes":[],"default_left":[0,0,0,0,0,0,0,0,0,0,0,0,0,0,0,0,0,0,0,0,0,0,0,0,0,0,0,0,0,0,0,0,0,0,0,0,0,0,0,0,0,0,0,0,0,0,0,0,0,0,0,0,0,0,0,0,0,0,0,0,0,0,0],"id":22,"left_children":[1,3,5,7,9,11,13,15,17,19,21,23,25,27,29,31,33,35,37,39,41,43,45,47,49,51,53,55,57,59,61,-1,-1,-1,-1,-1,-1,-1,-1,-1,-1,-1,-1,-1,-1,-1,-1,-1,-1,-1,-1,-1,-1,-1,-1,-1,-1,-1,-1,-1,-1,-1,-1],"loss_changes":[4.3975546E2,3.2747894E2,8.481726E1,1.410412E2,1.3629353E2,4.3387238E1,8.216919E0,1.0471796E2,3.1858212E1,4.7451336E1,6.3989883E1,1.5985872E1,6.794441E0,9.175369E0,7.099167E0,5.295685E1,4.1816223E1,2.0385338E1,1.6066015E1,2.5504807E1,8.935788E0,2.8080975E1,1.0015167E1,1.9617167E0,7.856716E0,2.8353844E0,4.6956787E0,6.840637E0,5.997162E0,6.7285233E0,4.3800974E0,0E0,0E0,0E0,0E0,0E0,0E0,0E0,0E0,0E0,0E0,0E0,0E0,0E0,0E0,0E0,0E0,0E0,0E0,0E0,0E0,0E0,0E0,0E0,0E0,0E0,0E0,0E0,0E0,0E0,0E0,0E0,0E0],"parents":[2147483647,0,0,1,1,2,2,3,3,4,4,5,5,6,6,7,7,8,8,9,9,10,10,11,11,12,12,13,13,14,14,15,15,16,16,17,17,18,18,19,19,20,20,21,21,22,22,23,23,24,24,25,25,26,26,27,27,28,28,29,29,30,30],"right_children":[2,4,6,8,10,12,14,16,18,20,22,24,26,28,30,32,34,36,38,40,42,44,46,48,50,52,54,56,58,60,62,-1,-1,-1,-1,-1,-1,-1,-1,-1,-1,-1,-1,-1,-1,-1,-1,-1,-1,-1,-1,-1,-1,-1,-1,-1,-1,-1,-1,-1,-1,-1,-1],"split_conditions":[1E0,5.8E1,6.3E1,1E0,1E0,1E0,8.5E1,1E0,1E0,7E1,1E0,2.7E1,3.3E1,1E0,1E0,3E1,1E0,4.9E1,3.7E1,1E0,8.5E1,1E0,1E0,1E0,3E1,1E0,1E0,1E0,1E0,1E0,1E0,-8.1515245E-2,-4.21097E-2,-2.8145367E-2,1.5474212E-3,-2.3186477E-2,1.368226E-2,-5.585979E-3,2.6676003E-2,-2.709267E-2,9.699067E-3,3.1330641E-3,2.3178458E-2,1.01934355E-2,3.8626652E-2,5.5739325E-2,1.0160779E-1,-1.2714612E-2,-4.178854E-2,9.131437E-2,9.46335E-3,3.487122E-2,7.7420124E-3,4.6108257E-2,1.8284695E-2,3.678769E-2,7.7731706E-2,8.155981E-2,5.2269816E-2,9.8325014E-2,2.268632E-2,5.396917E-2,-1.8542703E-2],"split_indices":[18,0,0,16,6,6,0,6,6,0,16,0,0,6,7,0,20,0,0,16,0,20,11,22,0,22,11,14,3,23,14,0,0,0,0,0,0,0,0,0,0,0,0,0,0,0,0,0,0,0,0,0,0,0,0,0,0,0,0,0,0,0,0],"split_type":[0,0,0,0,0,0,0,0,0,0,0,0,0,0,0,0,0,0,0,0,0,0,0,0,0,0,0,0,0,0,0,0,0,0,0,0,0,0,0,0,0,0,0,0,0,0,0,0,0,0,0,0,0,0,0,0,0,0,0,0,0,0,0],"sum_hessian":[3.186E3,2.55E3,6.36E2,1.485E3,1.065E3,4.02E2,2.34E2,1.122E3,3.63E2,5.65E2,5E2,2.02E2,2E2,1.85E2,4.9E1,5.66E2,5.56E2,1.86E2,1.77E2,2.98E2,2.67E2,3.88E2,1.12E2,2.6E1,1.76E2,4E1,1.6E2,9.6E1,8.9E1,3.6E1,1.3E1,1.06E2,4.6E2,3.85E2,1.71E2,1.35E2,5.1E1,5.6E1,1.21E2,2.4E2,5.8E1,1.89E2,7.8E1,2.57E2,1.31E2,9.7E1,1.5E1,1.1E1,1.5E1,2E0,1.74E2,1.6E1,2.4E1,1.41E2,1.9E1,8.4E1,1.2E1,4E1,4.9E1,3.2E1,4E0,1.1E1,2E0],"tree_param":{"num_deleted":"0","num_feature":"25","num_nodes":"63","size_leaf_vector":"1"}},{"base_weights":[-6.3754832E-3,-1.9638836E-1,6.8951076E-1,-1.893345E-2,-8.6836463E-1,9.195888E-1,-1.3109618E-1,1.8096077E-1,-6.3300246E-1,-1.1480019E0,-6.0616046E-1,7.737448E-1,1.9930345E0,-2.4582167E-1,7.809221E-1,-8.0799825E-2,4.4995406E-1,-8.8050467E-1,-3.8493463E-1,-1.2980564E0,-8.8356996E-1,-8.470854E-1,-3.2631576E-1,9.726586E-1,1.2924674E-1,2.1854284E0,8.8486046E-1,-4.6634763E-1,-3.1321168E-2,9.862378E-1,-1.3291335E-1,4.2139026E-3,-1.961876E-2,1.2022388E-2,3.871452E-2,-5.4934897E-2,-2.8769145E-2,-2.7532274E-2,-5.7322267E-3,-6.8521105E-2,-3.9420616E-2,-4.1060448E-2,-6.397283E-2,-4.0074755E-2,-7.2347574E-2,-2.2071606E-2,9.305912E-3,3.4429703E-2,6.288212E-2,-1.2816081E-2,2.279046E-2,1.1283418E-1,3.741913E-2,1.2844408E-2,9.5979504E-2,-3.680201E-2,-1.1563393E-3,1.8850866E-3,-2.4783146E-2,1.8078538E-2,5.999738E-2,-2.8794408E-2,1.0335382E-2],"categories":[],"categories_nodes":[],"categories_segments":[],"categories_sizes":[],"default_left":[0,0,0,0,0,0,0,0,0,0,0,0,0,0,0,0,0,0,0,0,0,0,0,0,0,0,0,0,0,0,0,0,0,0,0,0,0,0,0,0,0,0,0,0,0,0,0,0,0,0,0,0,0,0,0,0,0,0,0,0,0,0,0],"id":23,"left_children":[1,3,5,7,9,11,13,15,17,19,21,23,25,27,29,31,33,35,37,39,41,43,45,47,49,51,53,55,57,59,61,-1,-1,-1,-1,-1,-1,-1,-1,-1,-1,-1,-1,-1,-1,-1,-1,-1,-1,-1,-1,-1,-1,-1,-1,-1,-1,-1,-1,-1,-1,-1,-1],"loss_changes":[4.1982504E2,2.973818E2,1.2869586E2,2.4242078E2,3.7504944E1,8.174542E1,1.5886729E1,1.0495E2,2.9438766E1,8.8125305E0,1.7994835E1,6.0128082E1,1.1498169E1,6.323985E0,3.3207045E0,3.8917324E1,4.9757446E1,1.5479095E1,1.0865631E1,4.7467346E0,1.2699585E0,2.8057404E0,7.5738277E0,2.8196411E1,1.4218993E1,3.7381744E0,6.654476E0,7.872181E0,2.230152E0,1.4350986E0,7.2081465E-1,0E0,0E0,0E0,0E0,0E0,0E0,0E0,0E0,0E0,0E0,0E0,0E0,0E0,0E0,0E0,0E0,0E0,0E0,0E0,0E0,0E0,0E0,0E0,0E0,0E0,0E0,0E0,0E0,0E0,0E0,0E0,0E0],"parents":[2147483647,0,0,1,1,2,2,3,3,4,4,5,5,6,6,7,7,8,8,9,9,10,10,11,11,12,12,13,13,14,14,15,15,16,16,17,17,18,18,19,19,20,20,21,21,22,22,23,23,24,24,25,25,26,26,27,27,28,28,29,29,30,30],"right_children":[2,4,6,8,10,12,14,16,18,20,22,24,26,28,30,32,34,36,38,40,42,44,46,48,50,52,54,56,58,60,62,-1,-1,-1,-1,-1,-1,-1,-1,-1,-1,-1,-1,-1,-1,-1,-1,-1,-1,-1,-1,-1,-1,-1,-1,-1,-1,-1,-1,-1,-1,-1,-1],"split_conditions":[2E0,1E0,1E0,1E0,1E0,4E0,4E0,1E0,1E0,1E0,1E0,1E0,1E0,1E0,1E0,1E0,1E0,1E0,1E0,1E0,1E0,3E0,2E0,1E0,1E0,1E0,5E0,3E0,3E0,1E0,1E0,4.2139026E-3,-1.961876E-2,1.2022388E-2,3.871452E-2,-5.4934897E-2,-2.8769145E-2,-2.7532274E-2,-5.7322267E-3,-6.8521105E-2,-3.9420616E-2,-4.1060448E-2,-6.397283E-2,-4.0074755E-2,-7.2347574E-2,-2.2071606E-2,9.305912E-3,3.4429703E-2,6.288212E-2,-1.2816081E-2,2.279046E-2,1.1283418E-1,3.741913E-2,1.2844408E-2,9.5979504E-2,-3.680201E-2,-1.1563393E-3,1.8850866E-3,-2.4783146E-2,1.8078538E-2,5.999738E-2,-2.8794408E-2,1.0335382E-2],"split_indices":[1,19,19,17,6,1,1,6,6,1,1,17,7,6,14,20,1,1,1,23,12,2,2,6,6,24,1,1,2,6,2,0,0,0,0,0,0,0,0,0,0,0,0,0,0,0,0,0,0,0,0,0,0,0,0,0,0,0,0,0,0,0,0],"split_type":[0,0,0,0,0,0,0,0,0,0,0,0,0,0,0,0,0,0,0,0,0,0,0,0,0,0,0,0,0,0,0,0,0,0,0,0,0,0,0,0,0,0,0,0,0,0,0,0,0,0,0,0,0,0,0,0,0,0,0,0,0,0,0],"sum_hessian":[3.173E3,2.493E3,6.8E2,1.973E3,5.2E2,5.31E2,1.49E2,1.489E3,4.84E2,2.5E2,2.7E2,4.69E2,6.2E1,1.33E2,1.6E1,7.55E2,7.34E2,2.41E2,2.43E2,1.57E2,9.3E1,1.44E2,1.26E2,3.58E2,1.11E2,5.2E1,1E1,6.5E1,6.8E1,1.3E1,3E0,4.94E2,2.61E2,4.47E2,2.87E2,1.39E2,1.02E2,1.5E2,9.3E1,1.36E2,2.1E1,8.3E1,1E1,1.36E2,8E0,1.03E2,2.3E1,1.81E2,1.77E2,5.1E1,6E1,4.9E1,3E0,7E0,3E0,4E1,2.5E1,6E1,8E0,4E0,9E0,1E0,2E0],"tree_param":{"num_deleted":"0","num_feature":"25","num_nodes":"63","size_leaf_vector":"1"}},{"base_weights":[3.583602E-2,-3.544872E-1,3.6410797E-1,-5.1640594E-1,3.271729E-1,5.382546E-1,-2.880385E-1,-6.7332745E-1,-4.4193505E-3,1.8221192E-3,6.345607E-1,3.9945552E-1,1.3291537E0,-7.2426635E-1,-8.689041E-2,-9.654856E-1,-3.7709424E-1,-3.345411E-1,3.25734E-1,-6.8816257E-1,2.1661147E-1,5.8337057E-1,2.2931716E0,5.9569085E-1,-1.9128352E-1,1.1904595E0,2.6242406E0,-8.774263E-1,-4.5369938E-1,-4.2089468E-1,2.3236667E-1,-1.3167892E-1,-4.6300407E-2,-9.027054E-3,-3.8779233E-2,-6.077346E-2,-1.5318935E-2,1.4195213E-2,1.0706619E-1,-6.75796E-2,-2.6071092E-2,5.3770067E-3,4.943094E-2,2.5340611E-2,5.2615523E-2,1.5075804E-1,3.1800985E-3,-1.1090694E-2,3.612886E-2,-1.5246025E-2,3.725484E-2,4.7052927E-2,7.3933475E-2,1.5424487E-1,3.5871133E-2,6.7381814E-2,-4.6352357E-2,-5.8527496E-2,-1.0421653E-2,-2.6893286E-2,2.3247615E-2,7.6187993E-3,5.4193407E-2],"categories":[],"categories_nodes":[],"categories_segments":[],"categories_sizes":[],"default_left":[0,0,0,0,0,0,0,0,0,0,0,0,0,0,0,0,0,0,0,0,0,0,0,0,0,0,0,0,0,0,0,0,0,0,0,0,0,0,0,0,0,0,0,0,0,0,0,0,0,0,0,0,0,0,0,0,0,0,0,0,0,0,0],"id":24,"left_children":[1,3,5,7,9,11,13,15,17,19,21,23,25,27,29,31,33,35,37,39,41,43,45,47,49,51,53,55,57,59,61,-1,-1,-1,-1,-1,-1,-1,-1,-1,-1,-1,-1,-1,-1,-1,-1,-1,-1,-1,-1,-1,-1,-1,-1,-1,-1,-1,-1,-1,-1,-1,-1],"loss_changes":[4.111771E2,1.6197656E2,1.9810603E2,9.5201965E1,2.8201345E1,1.5052094E2,3.2227745E1,7.813397E1,3.05174E1,2.0600853E1,1.09733925E1,1.3597672E2,3.3698273E1,4.4089584E0,2.707601E1,2.7589844E1,3.5262672E1,3.1008768E0,1.002446E1,2.945732E0,8.819294E0,4.5646515E0,6.2471313E0,9.144287E1,3.140457E1,1.2050018E1,1.4476181E1,9.309204E0,7.4920673E0,1.3098764E1,8.689428E0,0E0,0E0,0E0,0E0,0E0,0E0,0E0,0E0,0E0,0E0,0E0,0E0,0E0,0E0,0E0,0E0,0E0,0E0,0E0,0E0,0E0,0E0,0E0,0E0,0E0,0E0,0E0,0E0,0E0,0E0,0E0,0E0],"parents":[2147483647,0,0,1,1,2,2,3,3,4,4,5,5,6,6,7,7,8,8,9,9,10,10,11,11,12,12,13,13,14,14,15,15,16,16,17,17,18,18,19,19,20,20,21,21,22,22,23,23,24,24,25,25,26,26,27,27,28,28,29,29,30,30],"right_children":[2,4,6,8,10,12,14,16,18,20,22,24,26,28,30,32,34,36,38,40,42,44,46,48,50,52,54,56,58,60,62,-1,-1,-1,-1,-1,-1,-1,-1,-1,-1,-1,-1,-1,-1,-1,-1,-1,-1,-1,-1,-1,-1,-1,-1,-1,-1,-1,-1,-1,-1,-1,-1],"split_conditions":[1E0,1E0,1E0,1E0,1E0,3E0,5E1,1E0,4.8E1,4.1E1,8E1,1E0,5E0,1E0,1E0,1.4E1,1E0,1.1E1,9.4E1,1.8E1,1E0,1E0,8.7E1,3.5E1,8.1E1,7.2E1,1E0,9E0,2.9E1,1E0,4E0,-1.3167892E-1,-4.6300407E-2,-9.027054E-3,-3.8779233E-2,-6.077346E-2,-1.5318935E-2,1.4195213E-2,1.0706619E-1,-6.75796E-2,-2.6071092E-2,5.3770067E-3,4.943094E-2,2.5340611E-2,5.2615523E-2,1.5075804E-1,3.1800985E-3,-1.1090694E-2,3.612886E-2,-1.5246025E-2,3.725484E-2,4.7052927E-2,7.3933475E-2,1.5424487E-1,3.5871133E-2,6.7381814E-2,-4.6352357E-2,-5.8527496E-2,-1.0421653E-2,-2.6893286E-2,2.3247615E-2,7.6187993E-3,5.4193407E-2],"split_indices":[1,18,19,16,6,1,0,6,0,0,0,17,1,21,6,0,19,0,0,0,13,15,0,0,0,0,17,0,0,9,1,0,0,0,0,0,0,0,0,0,0,0,0,0,0,0,0,0,0,0,0,0,0,0,0,0,0,0,0,0,0,0,0],"split_type":[0,0,0,0,0,0,0,0,0,0,0,0,0,0,0,0,0,0,0,0,0,0,0,0,0,0,0,0,0,0,0,0,0,0,0,0,0,0,0,0,0,0,0,0,0,0,0,0,0,0,0,0,0,0,0,0,0,0,0,0,0,0,0],"sum_hessian":[3.207E3,1.465E3,1.742E3,1.184E3,2.81E2,1.375E3,3.67E2,9.06E2,2.78E2,1.37E2,1.44E2,1.171E3,2.04E2,1.15E2,2.52E2,4.55E2,4.51E2,1.39E2,1.39E2,3.2E1,1.05E2,1.41E2,3E0,8.79E2,2.92E2,1.86E2,1.8E1,7.2E1,4.3E1,1.23E2,1.29E2,9E0,4.46E2,3.03E2,1.48E2,3E0,1.36E2,1.37E2,2E0,5E0,2.7E1,9.3E1,1.2E1,1.23E2,1.8E1,2E0,1E0,1.18E2,7.61E2,2.61E2,3.1E1,1.02E2,8.4E1,1.4E1,4E0,1E0,7.1E1,1E1,3.3E1,1.09E2,1.4E1,1.19E2,1E1],"tree_param":{"num_deleted":"0","num_feature":"25","num_nodes":"63","size_leaf_vector":"1"}},{"base_weights":[6.2173647E-3,-2.485817E-1,4.0996775E-1,-4.1403323E-1,4.318228E-1,3.3140263E-1,1.5518937E0,-5.637907E-1,7.781713E-2,2.1193422E-1,6.4724165E-1,4.8120946E-1,-2.438136E-1,1.2204744E0,2.2321973E0,-1.0554228E0,-4.6741596E-1,-8.707313E-2,6.712756E-1,-5.3613764E-1,3.0638567E-1,7.0991194E-1,2.1258058E-1,3.6460224E-1,1.1179608E0,-6.6081727E-1,-6.331313E-2,1.3796786E0,5.2175206E-1,2.531579E0,8.622249E-1,-7.411484E-2,-3.0017788E-2,-1.54705485E-2,-3.8604703E-2,-2.2146692E-2,3.6835712E-3,1.6355468E-2,6.079153E-2,-4.133463E-2,-5.2401256E-3,1.0735172E-2,5.9343424E-2,1.6036902E-2,4.1359525E-2,2.0304466E-2,-9.902849E-3,2.636126E-2,-5.2117063E-3,2.8359143E-2,6.489843E-2,-3.9018292E-2,2.8891763E-2,2.2027378E-3,-2.8291587E-2,7.536305E-2,2.3588331E-2,1.1054906E-2,9.572363E-2,1.5220848E-1,6.910862E-2,-1.1937778E-3,6.55622E-2],"categories":[],"categories_nodes":[],"categories_segments":[],"categories_sizes":[],"default_left":[0,0,0,0,0,0,0,0,0,0,0,0,0,0,0,0,0,0,0,0,0,0,0,0,0,0,0,0,0,0,0,0,0,0,0,0,0,0,0,0,0,0,0,0,0,0,0,0,0,0,0,0,0,0,0,0,0,0,0,0,0,0,0],"id":25,"left_children":[1,3,5,7,9,11,13,15,17,19,21,23,25,27,29,31,33,35,37,39,41,43,45,47,49,51,53,55,57,59,61,-1,-1,-1,-1,-1,-1,-1,-1,-1,-1,-1,-1,-1,-1,-1,-1,-1,-1,-1,-1,-1,-1,-1,-1,-1,-1,-1,-1,-1,-1,-1,-1],"loss_changes":[3.3156586E2,2.2262497E2,1.1136096E2,1.1716046E2,1.8194298E1,1.0076543E2,1.5312927E1,5.7264008E1,3.646071E1,1.3800963E1,5.1609497E0,6.842197E1,1.8173347E1,5.5095673E0,8.070824E0,3.776709E1,4.8912704E1,1.6735815E1,1.4783104E1,2.6705446E0,1.362981E1,7.4937897E0,2.1464396E0,5.9906143E1,1.3441437E1,1.1260696E1,9.197169E0,4.5014267E0,4.6014366E0,7.5759277E0,2.4185624E0,0E0,0E0,0E0,0E0,0E0,0E0,0E0,0E0,0E0,0E0,0E0,0E0,0E0,0E0,0E0,0E0,0E0,0E0,0E0,0E0,0E0,0E0,0E0,0E0,0E0,0E0,0E0,0E0,0E0,0E0,0E0,0E0],"parents":[2147483647,0,0,1,1,2,2,3,3,4,4,5,5,6,6,7,7,8,8,9,9,10,10,11,11,12,12,13,13,14,14,15,15,16,16,17,17,18,18,19,19,20,20,21,21,22,22,23,23,24,24,25,25,26,26,27,27,28,28,29,29,30,30],"right_children":[2,4,6,8,10,12,14,16,18,20,22,24,26,28,30,32,34,36,38,40,42,44,46,48,50,52,54,56,58,60,62,-1,-1,-1,-1,-1,-1,-1,-1,-1,-1,-1,-1,-1,-1,-1,-1,-1,-1,-1,-1,-1,-1,-1,-1,-1,-1,-1,-1,-1,-1,-1,-1],"split_conditions":[6E1,1E0,4E0,1E0,1E0,1E0,5E0,3E1,5.2E1,2.6E1,1E0,8.7E1,1E0,1E0,1E0,1E0,1E0,3.4E1,1E0,1E0,2E0,3.3E1,1E0,1E0,1E0,9E1,1E0,1E0,1E0,1E0,7E1,-7.411484E-2,-3.0017788E-2,-1.54705485E-2,-3.8604703E-2,-2.2146692E-2,3.6835712E-3,1.6355468E-2,6.079153E-2,-4.133463E-2,-5.2401256E-3,1.0735172E-2,5.9343424E-2,1.6036902E-2,4.1359525E-2,2.0304466E-2,-9.902849E-3,2.636126E-2,-5.2117063E-3,2.8359143E-2,6.489843E-2,-3.9018292E-2,2.8891763E-2,2.2027378E-3,-2.8291587E-2,7.536305E-2,2.3588331E-2,1.1054906E-2,9.572363E-2,1.5220848E-1,6.910862E-2,-1.1937778E-3,6.55622E-2],"split_indices":[0,18,1,16,6,19,1,0,0,0,14,0,1,19,17,6,19,0,1,1,1,0,23,17,1,0,23,24,8,19,0,0,0,0,0,0,0,0,0,0,0,0,0,0,0,0,0,0,0,0,0,0,0,0,0,0,0,0,0,0,0,0,0],"split_type":[0,0,0,0,0,0,0,0,0,0,0,0,0,0,0,0,0,0,0,0,0,0,0,0,0,0,0,0,0,0,0,0,0,0,0,0,0,0,0,0,0,0,0,0,0,0,0,0,0,0,0,0,0,0,0,0,0,0,0,0,0,0,0],"sum_hessian":[3.221E3,1.975E3,1.246E3,1.589E3,3.86E2,1.167E3,7.9E1,1.218E3,3.71E2,1.92E2,1.94E2,9.26E2,2.41E2,5.5E1,2.4E1,1.98E2,1.02E3,2.91E2,8E1,2.1E1,1.71E2,1.69E2,2.5E1,7.84E2,1.42E2,7.2E1,1.69E2,4.4E1,1.1E1,1.9E1,5E0,1.01E2,9.7E1,6.73E2,3.47E2,9E1,2.01E2,5E1,3E1,1.2E1,9E0,1.56E2,1.5E1,4E1,1.29E2,1.7E1,8E0,5.82E2,2.02E2,3.6E1,1.06E2,6.6E1,6E0,1.4E2,2.9E1,3.8E1,6E0,1E1,1E0,1.2E1,7E0,2E0,3E0],"tree_param":{"num_deleted":"0","num_feature":"25","num_nodes":"63","size_leaf_vector":"1"}},{"base_weights":[2.6400197E-2,-2.2766353E-1,4.2712063E-1,-3.7175488E-1,3.6788124E-1,5.9260833E-1,-2.0805548E-1,-5.276535E-1,1.2084544E-1,5.318868E-2,6.693226E-1,3.4318578E-1,8.475059E-1,-4.674086E-1,6.324067E-2,-1.0127875E0,-3.965189E-1,-1.7945711E-1,4.2529726E-1,1.09637454E-1,-5.3771235E-2,5.67029E-1,1.1178269E0,9.495688E-2,7.5772464E-1,9.966258E-1,3.6035925E-1,-8.590807E-1,-3.7604252E-1,-5.5505637E-2,5.702252E-1,-6.52281E-2,-3.493637E-2,-1.2184074E-2,-3.4593996E-2,-3.135649E-2,-8.130101E-4,1.651137E-2,7.1332954E-2,-2.541303E-2,1.0429556E-2,1.7580425E-2,3.5536043E-2,1.7409455E-2,8.071693E-2,-3.4302105E-3,2.6628418E-2,4.454013E-2,1.4012392E-2,4.4901893E-2,7.185605E-2,-1.0253512E-2,2.5985077E-2,-7.051115E-3,-6.809532E-2,-2.5112066E-2,1.0577696E-3,-1.4391887E-2,1.0320405E-2,1.859687E-2,1.282711E-1],"categories":[],"categories_nodes":[],"categories_segments":[],"categories_sizes":[],"default_left":[0,0,0,0,0,0,0,0,0,0,0,0,0,0,0,0,0,0,0,0,0,0,0,0,0,0,0,0,0,0,0,0,0,0,0,0,0,0,0,0,0,0,0,0,0,0,0,0,0,0,0,0,0,0,0,0,0,0,0,0,0],"id":26,"left_children":[1,3,5,7,9,11,13,15,17,19,21,23,25,27,29,31,33,35,37,39,-1,41,43,45,47,49,51,53,55,57,59,-1,-1,-1,-1,-1,-1,-1,-1,-1,-1,-1,-1,-1,-1,-1,-1,-1,-1,-1,-1,-1,-1,-1,-1,-1,-1,-1,-1,-1,-1],"loss_changes":[3.2405197E2,1.6730023E2,1.2993889E2,1.20556244E2,3.601171E1,6.20148E1,1.8042103E1,7.543088E1,3.4635975E1,1.203146E1,8.266708E0,5.1069607E1,3.480017E1,4.364853E0,7.617171E0,2.2272034E1,4.226509E1,1.3944033E1,1.7426357E1,1.1050662E1,0E0,4.70277E0,1.2812599E1,2.2368313E1,1.1569092E1,1.4777588E1,1.0467712E1,8.473341E0,5.424221E0,6.3270617E0,8.540779E0,0E0,0E0,0E0,0E0,0E0,0E0,0E0,0E0,0E0,0E0,0E0,0E0,0E0,0E0,0E0,0E0,0E0,0E0,0E0,0E0,0E0,0E0,0E0,0E0,0E0,0E0,0E0,0E0,0E0,0E0],"parents":[2147483647,0,0,1,1,2,2,3,3,4,4,5,5,6,6,7,7,8,8,9,9,10,10,11,11,12,12,13,13,14,14,15,15,16,16,17,17,18,18,19,19,21,21,22,22,23,23,24,24,25,25,26,26,27,27,28,28,29,29,30,30],"right_children":[2,4,6,8,10,12,14,16,18,20,22,24,26,28,30,32,34,36,38,40,-1,42,44,46,48,50,52,54,56,58,60,-1,-1,-1,-1,-1,-1,-1,-1,-1,-1,-1,-1,-1,-1,-1,-1,-1,-1,-1,-1,-1,-1,-1,-1,-1,-1,-1,-1,-1,-1],"split_conditions":[6E1,1E0,1E0,1E0,1E0,1E0,1E0,3.3E1,1E0,5.8E1,1E0,7.7E1,1E0,6.3E1,8.2E1,1E0,1E0,3.4E1,5.7E1,2.8E1,-5.3771235E-2,1E0,4.4E1,1E0,1E0,8.6E1,6.5E1,1E0,2E0,1E0,1E0,-6.52281E-2,-3.493637E-2,-1.2184074E-2,-3.4593996E-2,-3.135649E-2,-8.130101E-4,1.651137E-2,7.1332954E-2,-2.541303E-2,1.0429556E-2,1.7580425E-2,3.5536043E-2,1.7409455E-2,8.071693E-2,-3.4302105E-3,2.6628418E-2,4.454013E-2,1.4012392E-2,4.4901893E-2,7.185605E-2,-1.0253512E-2,2.5985077E-2,-7.051115E-3,-6.809532E-2,-2.5112066E-2,1.0577696E-3,-1.4391887E-2,1.0320405E-2,1.859687E-2,1.282711E-1],"split_indices":[0,18,19,16,6,6,6,0,6,0,8,0,17,0,0,6,19,0,0,0,0,2,0,18,17,0,0,2,2,22,13,0,0,0,0,0,0,0,0,0,0,0,0,0,0,0,0,0,0,0,0,0,0,0,0,0,0,0,0,0,0],"split_type":[0,0,0,0,0,0,0,0,0,0,0,0,0,0,0,0,0,0,0,0,0,0,0,0,0,0,0,0,0,0,0,0,0,0,0,0,0,0,0,0,0,0,0,0,0,0,0,0,0,0,0,0,0,0,0,0,0,0,0,0,0],"sum_hessian":[3.181E3,1.947E3,1.234E3,1.568E3,3.79E2,9.79E2,2.55E2,1.191E3,3.77E2,1.86E2,1.93E2,4.96E2,4.83E2,1.3E2,1.25E2,2.52E2,9.39E2,1.9E2,1.87E2,1.78E2,8E0,1.59E2,3.4E1,3.11E2,1.85E2,3.69E2,1.14E2,2.3E1,1.07E2,1.02E2,2.3E1,1.29E2,1.23E2,6.2E2,3.19E2,5E1,1.4E2,1.72E2,1.5E1,2.4E1,1.54E2,6.5E1,9.4E1,1.4E1,2E1,2.27E2,8.4E1,1.44E2,4.1E1,3.04E2,6.5E1,2.5E1,8.9E1,1E1,1.3E1,8.1E1,2.6E1,5.4E1,4.8E1,2.2E1,1E0],"tree_param":{"num_deleted":"0","num_feature":"25","num_nodes":"61","size_leaf_vector":"1"}},{"base_weights":[-1.0237434E-2,-1.8478411E-1,6.1779803E-1,-3.1431708E-1,3.5320595E-1,4.5581184E-2,8.2468194E-1,-5.540258E-1,-6.8357535E-2,1.4517736E-1,5.6751156E-1,-4.8671392E-1,2.8090587E-1,6.9661075E-1,1.5155631E0,-7.362994E-1,-2.8900114E-1,-3.3421296E-1,1.5146938E-1,-6.049941E-1,2.163017E-1,4.035972E-1,7.8479797E-1,-6.954489E-1,7.2700405E-1,-6.470716E-2,5.738846E-1,4.1756514E-1,9.8674464E-1,1.3781376E0,2.580126E0,-5.8399595E-2,-3.2332428E-2,-1.8358596E-2,4.5936435E-2,-2.5528362E-2,1.3274279E-3,3.9086407E-3,4.4363473E-2,-4.284052E-2,1.0465885E-2,1.0963583E-1,9.467377E-3,1.2816946E-2,2.8975535E-2,4.5463387E-2,-7.3429733E-3,-3.7655137E-2,2.2941431E-2,-2.017576E-2,5.538273E-2,-6.1707394E-3,8.644376E-2,2.190496E-2,6.373525E-2,2.8374989E-2,-1.3457685E-2,4.2048074E-2,7.180948E-2,7.252001E-2,1.6473643E-2,1.4824997E-1,4.7516886E-2],"categories":[],"categories_nodes":[],"categories_segments":[],"categories_sizes":[],"default_left":[0,0,0,0,0,0,0,0,0,0,0,0,0,0,0,0,0,0,0,0,0,0,0,0,0,0,0,0,0,0,0,0,0,0,0,0,0,0,0,0,0,0,0,0,0,0,0,0,0,0,0,0,0,0,0,0,0,0,0,0,0,0,0],"id":27,"left_children":[1,3,5,7,9,11,13,15,17,19,21,23,25,27,29,31,33,35,37,39,41,43,45,47,49,51,53,55,57,59,61,-1,-1,-1,-1,-1,-1,-1,-1,-1,-1,-1,-1,-1,-1,-1,-1,-1,-1,-1,-1,-1,-1,-1,-1,-1,-1,-1,-1,-1,-1,-1,-1],"loss_changes":[3.5484937E2,1.766293E2,8.330365E1,1.203557E2,2.1851807E1,2.368601E1,4.4689423E1,4.9736633E1,5.9018784E1,1.3523077E1,8.302406E0,1.5199625E1,1.3301835E1,3.5048706E1,8.148071E0,2.2930145E1,4.0272423E1,2.9088741E1,2.9754824E1,4.6905985E0,1.1837509E1,3.4781113E0,1.2077747E1,3.6729698E0,4.31995E0,6.6364837E0,6.197994E0,2.3319408E1,1.28138275E1,5.0540314E0,2.2003403E0,0E0,0E0,0E0,0E0,0E0,0E0,0E0,0E0,0E0,0E0,0E0,0E0,0E0,0E0,0E0,0E0,0E0,0E0,0E0,0E0,0E0,0E0,0E0,0E0,0E0,0E0,0E0,0E0,0E0,0E0,0E0,0E0],"parents":[2147483647,0,0,1,1,2,2,3,3,4,4,5,5,6,6,7,7,8,8,9,9,10,10,11,11,12,12,13,13,14,14,15,15,16,16,17,17,18,18,19,19,20,20,21,21,22,22,23,23,24,24,25,25,26,26,27,27,28,28,29,29,30,30],"right_children":[2,4,6,8,10,12,14,16,18,20,22,24,26,28,30,32,34,36,38,40,42,44,46,48,50,52,54,56,58,60,62,-1,-1,-1,-1,-1,-1,-1,-1,-1,-1,-1,-1,-1,-1,-1,-1,-1,-1,-1,-1,-1,-1,-1,-1,-1,-1,-1,-1,-1,-1,-1,-1],"split_conditions":[2E0,1E0,6.1E1,1E0,1E0,3.6E1,4E0,1E0,4.9E1,2.8E1,1E0,1E0,1E0,1E0,6E0,3.3E1,8.5E1,1E0,8.5E1,1E0,3E1,5.2E1,1E0,4E0,1.7E1,3E0,1E0,1E0,1E0,1E0,8.5E1,-5.8399595E-2,-3.2332428E-2,-1.8358596E-2,4.5936435E-2,-2.5528362E-2,1.3274279E-3,3.9086407E-3,4.4363473E-2,-4.284052E-2,1.0465885E-2,1.0963583E-1,9.467377E-3,1.2816946E-2,2.8975535E-2,4.5463387E-2,-7.3429733E-3,-3.7655137E-2,2.2941431E-2,-2.017576E-2,5.538273E-2,-6.1707394E-3,8.644376E-2,2.190496E-2,6.373525E-2,2.8374989E-2,-1.3457685E-2,4.2048074E-2,7.180948E-2,7.252001E-2,1.6473643E-2,1.4824997E-1,4.7516886E-2],"split_indices":[1,18,0,6,6,0,1,1,0,0,1,18,6,6,1,0,0,1,0,1,0,0,11,1,0,2,10,17,18,24,0,0,0,0,0,0,0,0,0,0,0,0,0,0,0,0,0,0,0,0,0,0,0,0,0,0,0,0,0,0,0,0,0],"split_type":[0,0,0,0,0,0,0,0,0,0,0,0,0,0,0,0,0,0,0,0,0,0,0,0,0,0,0,0,0,0,0,0,0,0,0,0,0,0,0,0,0,0,0,0,0,0,0,0,0,0,0,0,0,0,0,0,0,0,0,0,0,0,0],"sum_hessian":[3.235E3,2.532E3,7.03E2,2.041E3,4.91E2,1.87E2,5.16E2,1.033E3,1.008E3,2.5E2,2.41E2,5.7E1,1.3E2,4.37E2,7.9E1,6.11E2,4.22E2,4.56E2,5.52E2,2.1E1,2.29E2,1.39E2,1.02E2,4.9E1,8E0,6E1,7E1,2.24E2,2.13E2,7.2E1,7E0,1.03E2,5.08E2,3.97E2,2.5E1,3.06E2,1.5E2,5.03E2,4.9E1,1.6E1,5E0,2E0,2.27E2,7.7E1,6.2E1,9E1,1.2E1,4.7E1,2E0,2E0,6E0,5.9E1,1E0,6E1,1E1,1.84E2,4E1,1.63E2,5E1,6.7E1,5E0,5E0,2E0],"tree_param":{"num_deleted":"0","num_feature":"25","num_nodes":"63","size_leaf_vector":"1"}},{"base_weights":[-6.4682146E-3,-2.3129216E-1,3.5127002E-1,-9.610131E-2,-7.3752886E-1,5.0831527E-1,-2.4100247E-1,7.60142E-2,-5.8060503E-1,-9.476106E-1,-5.463151E-1,3.600466E-1,